|--- assets_fonts
|--- assets_images
|   |--- Logo SDN Cimega.ico
|   |--- Logo SDN Cimega.png
|   |--- logo.png
|--- assets_logos
|--- assets_music
|   |--- Kang Prabu - Duhai Pemilik Jiwa.mp3
|   |--- Kang Prabu - Himne SDN Cimega.mp3
|   |--- Kang Prabu - Juara Di Atas Bumi Mulia.mp3
|   |--- Kang Prabu - Langkah Kecil Cimega.mp3
|   |--- Kang Prabu - Mars SDN Cimega.mp3
|   |--- Kang Prabu - Restu Terakhir.mp3
|   |--- Kang Prabu - Senam Kreasi Cimega.mp3
|--- data_cache
|--- dist
|   |--- .icon-ico
|   |   |--- icon.ico
|   |--- win-unpacked
|   |   |--- locales
|   |   |   |--- af.pak
|   |   |   |--- am.pak
|   |   |   |--- ar.pak
|   |   |   |--- bg.pak
|   |   |   |--- bn.pak
|   |   |   |--- ca.pak
|   |   |   |--- cs.pak
|   |   |   |--- da.pak
|   |   |   |--- de.pak
|   |   |   |--- el.pak
|   |   |   |--- en-GB.pak
|   |   |   |--- en-US.pak
|   |   |   |--- es-419.pak
|   |   |   |--- es.pak
|   |   |   |--- et.pak
|   |   |   |--- fa.pak
|   |   |   |--- fi.pak
|   |   |   |--- fil.pak
|   |   |   |--- fr.pak
|   |   |   |--- gu.pak
|   |   |   |--- he.pak
|   |   |   |--- hi.pak
|   |   |   |--- hr.pak
|   |   |   |--- hu.pak
|   |   |   |--- id.pak
|   |   |   |--- it.pak
|   |   |   |--- ja.pak
|   |   |   |--- kn.pak
|   |   |   |--- ko.pak
|   |   |   |--- lt.pak
|   |   |   |--- lv.pak
|   |   |   |--- ml.pak
|   |   |   |--- mr.pak
|   |   |   |--- ms.pak
|   |   |   |--- nb.pak
|   |   |   |--- nl.pak
|   |   |   |--- pl.pak
|   |   |   |--- pt-BR.pak
|   |   |   |--- pt-PT.pak
|   |   |   |--- ro.pak
|   |   |   |--- ru.pak
|   |   |   |--- sk.pak
|   |   |   |--- sl.pak
|   |   |   |--- sr.pak
|   |   |   |--- sv.pak
|   |   |   |--- sw.pak
|   |   |   |--- ta.pak
|   |   |   |--- te.pak
|   |   |   |--- th.pak
|   |   |   |--- tr.pak
|   |   |   |--- uk.pak
|   |   |   |--- ur.pak
|   |   |   |--- vi.pak
|   |   |   |--- zh-CN.pak
|   |   |   |--- zh-TW.pak
|   |   |--- resources
|   |   |   |--- assets_images
|   |   |   |   |--- Logo SDN Cimega.ico
|   |   |   |   |--- logo.png
|   |   |   |--- assets_music
|   |   |   |   |--- Kang Prabu - Duhai Pemilik Jiwa.mp3
|   |   |   |   |--- Kang Prabu - Himne SDN Cimega.mp3
|   |   |   |   |--- Kang Prabu - Juara Di Atas Bumi Mulia.mp3
|   |   |   |   |--- Kang Prabu - Langkah Kecil Cimega.mp3
|   |   |   |   |--- Kang Prabu - Mars SDN Cimega.mp3
|   |   |   |   |--- Kang Prabu - Restu Terakhir.mp3
|   |   |   |   |--- Kang Prabu - Senam Kreasi Cimega.mp3
|   |   |   |--- app-update.yml
|   |   |   |--- app.asar
|   |   |   |--- elevate.exe
|   |   |--- chrome_100_percent.pak
|   |   |--- chrome_200_percent.pak
|   |   |--- Cimega Smart Office.exe
|   |   |--- d3dcompiler_47.dll
|   |   |--- dxcompiler.dll
|   |   |--- dxil.dll
|   |   |--- ffmpeg.dll
|   |   |--- icudtl.dat
|   |   |--- libEGL.dll
|   |   |--- libGLESv2.dll
|   |   |--- LICENSE.electron.txt
|   |   |--- LICENSES.chromium.html
|   |   |--- resources.pak
|   |   |--- snapshot_blob.bin
|   |   |--- v8_context_snapshot.bin
|   |   |--- vk_swiftshader.dll
|   |   |--- vk_swiftshader_icd.json
|   |   |--- vulkan-1.dll
|   |--- builder-debug.yml
|   |--- builder-effective-config.yaml
|   |--- Cimega Smart Office Setup 1.0.0.exe
|   |--- Cimega Smart Office Setup 1.0.0.exe.blockmap
|   |--- latest.yml
|--- folder_fitur_sidebar
|   |--- modul_evaluasi.py
|   |--- modul_kepsek.py
|   |--- modul_keuangan.py
|   |--- modul_kosp.py
|   |--- modul_pembelajaran.py
|   |--- modul_perpustakaan.py
|   |--- modul_tata_usaha.py
|--- folder_mesin
|   |--- modul_doc_factory.py
|   |--- modul_media_player.py
|   |--- modul_visual_engine.py
|--- folder_otak_ai
|   |--- brain_finance_ai.py
|   |--- brain_managerial_ai.py
|   |--- brain_pedagogis_ai.py
|   |--- modul_ai_orchestrator.py
|--- folder_sistem
|   |--- modul_auth_cloud.py
|   |--- modul_auto_updater.py
|   |--- modul_license_guard.py
|   |--- modul_super_admin.py
|--- logs
|--- node_modules
|   |--- .bin
|   |   |--- asar
|   |   |--- asar.cmd
|   |   |--- asar.ps1
|   |   |--- autoprefixer
|   |   |--- autoprefixer.cmd
|   |   |--- autoprefixer.ps1
|   |   |--- baseline-browser-mapping
|   |   |--- baseline-browser-mapping.cmd
|   |   |--- baseline-browser-mapping.ps1
|   |   |--- browserslist
|   |   |--- browserslist.cmd
|   |   |--- browserslist.ps1
|   |   |--- cssesc
|   |   |--- cssesc.cmd
|   |   |--- cssesc.ps1
|   |   |--- ejs
|   |   |--- ejs.cmd
|   |   |--- ejs.ps1
|   |   |--- electron
|   |   |--- electron-builder
|   |   |--- electron-builder.cmd
|   |   |--- electron-builder.ps1
|   |   |--- electron-fuses
|   |   |--- electron-fuses.cmd
|   |   |--- electron-fuses.ps1
|   |   |--- electron-osx-flat
|   |   |--- electron-osx-flat.cmd
|   |   |--- electron-osx-flat.ps1
|   |   |--- electron-osx-sign
|   |   |--- electron-osx-sign.cmd
|   |   |--- electron-osx-sign.ps1
|   |   |--- electron-rebuild
|   |   |--- electron-rebuild.cmd
|   |   |--- electron-rebuild.ps1
|   |   |--- electron-windows-sign
|   |   |--- electron-windows-sign.cmd
|   |   |--- electron-windows-sign.ps1
|   |   |--- electron.cmd
|   |   |--- electron.ps1
|   |   |--- extract-zip
|   |   |--- extract-zip.cmd
|   |   |--- extract-zip.ps1
|   |   |--- install-app-deps
|   |   |--- install-app-deps.cmd
|   |   |--- install-app-deps.ps1
|   |   |--- jake
|   |   |--- jake.cmd
|   |   |--- jake.ps1
|   |   |--- jiti
|   |   |--- jiti.cmd
|   |   |--- jiti.ps1
|   |   |--- js-yaml
|   |   |--- js-yaml.cmd
|   |   |--- js-yaml.ps1
|   |   |--- json5
|   |   |--- json5.cmd
|   |   |--- json5.ps1
|   |   |--- mime
|   |   |--- mime.cmd
|   |   |--- mime.ps1
|   |   |--- mkdirp
|   |   |--- mkdirp.cmd
|   |   |--- mkdirp.ps1
|   |   |--- nanoid
|   |   |--- nanoid.cmd
|   |   |--- nanoid.ps1
|   |   |--- node-gyp
|   |   |--- node-gyp.cmd
|   |   |--- node-gyp.ps1
|   |   |--- node-which
|   |   |--- node-which.cmd
|   |   |--- node-which.ps1
|   |   |--- nopt
|   |   |--- nopt.cmd
|   |   |--- nopt.ps1
|   |   |--- postject
|   |   |--- postject.cmd
|   |   |--- postject.ps1
|   |   |--- proto-loader-gen-types
|   |   |--- proto-loader-gen-types.cmd
|   |   |--- proto-loader-gen-types.ps1
|   |   |--- read-binary-file-arch
|   |   |--- read-binary-file-arch.cmd
|   |   |--- read-binary-file-arch.ps1
|   |   |--- resolve
|   |   |--- resolve.cmd
|   |   |--- resolve.ps1
|   |   |--- rimraf
|   |   |--- rimraf.cmd
|   |   |--- rimraf.ps1
|   |   |--- semver
|   |   |--- semver.cmd
|   |   |--- semver.ps1
|   |   |--- sucrase
|   |   |--- sucrase-node
|   |   |--- sucrase-node.cmd
|   |   |--- sucrase-node.ps1
|   |   |--- sucrase.cmd
|   |   |--- sucrase.ps1
|   |   |--- tailwind
|   |   |--- tailwind.cmd
|   |   |--- tailwind.ps1
|   |   |--- tailwindcss
|   |   |--- tailwindcss.cmd
|   |   |--- tailwindcss.ps1
|   |   |--- update-browserslist-db
|   |   |--- update-browserslist-db.cmd
|   |   |--- update-browserslist-db.ps1
|   |   |--- yaml
|   |   |--- yaml.cmd
|   |   |--- yaml.ps1
|   |--- 7zip-bin
|   |   |--- linux
|   |   |   |--- arm
|   |   |   |   |--- 7za
|   |   |   |--- arm64
|   |   |   |   |--- 7za
|   |   |   |--- ia32
|   |   |   |   |--- 7za
|   |   |   |--- x64
|   |   |   |   |--- 7za
|   |   |   |   |--- build.sh
|   |   |   |   |--- do-build.sh
|   |   |--- mac
|   |   |   |--- arm64
|   |   |   |   |--- 7za
|   |   |   |--- x64
|   |   |   |   |--- 7za
|   |   |--- win
|   |   |   |--- arm64
|   |   |   |   |--- 7za.exe
|   |   |   |--- ia32
|   |   |   |   |--- 7za.exe
|   |   |   |--- x64
|   |   |   |   |--- 7za.exe
|   |   |--- 7x.sh
|   |   |--- index.d.ts
|   |   |--- index.js
|   |   |--- LICENSE.txt
|   |   |--- package.json
|   |   |--- README.md
|   |--- @alloc
|   |   |--- quick-lru
|   |   |   |--- index.d.ts
|   |   |   |--- index.js
|   |   |   |--- license
|   |   |   |--- package.json
|   |   |   |--- readme.md
|   |--- @develar
|   |   |--- schema-utils
|   |   |   |--- declarations
|   |   |   |   |--- keywords
|   |   |   |   |   |--- absolutePath.d.ts
|   |   |   |   |--- util
|   |   |   |   |   |--- Range.d.ts
|   |   |   |   |--- index.d.ts
|   |   |   |   |--- validate.d.ts
|   |   |   |   |--- ValidationError.d.ts
|   |   |   |--- dist
|   |   |   |   |--- keywords
|   |   |   |   |   |--- absolutePath.js
|   |   |   |   |--- util
|   |   |   |   |   |--- Range.js
|   |   |   |   |--- index.js
|   |   |   |   |--- validate.js
|   |   |   |   |--- ValidationError.js
|   |   |   |--- CHANGELOG.md
|   |   |   |--- LICENSE
|   |   |   |--- package.json
|   |   |   |--- README.md
|   |--- @electron
|   |   |--- asar
|   |   |   |--- bin
|   |   |   |   |--- asar.js
|   |   |   |--- lib
|   |   |   |   |--- types
|   |   |   |   |   |--- glob.d.ts
|   |   |   |   |   |--- glob.js
|   |   |   |   |   |--- glob.js.map
|   |   |   |   |--- asar.d.ts
|   |   |   |   |--- asar.js
|   |   |   |   |--- asar.js.map
|   |   |   |   |--- crawlfs.d.ts
|   |   |   |   |--- crawlfs.js
|   |   |   |   |--- crawlfs.js.map
|   |   |   |   |--- disk.d.ts
|   |   |   |   |--- disk.js
|   |   |   |   |--- disk.js.map
|   |   |   |   |--- filesystem.d.ts
|   |   |   |   |--- filesystem.js
|   |   |   |   |--- filesystem.js.map
|   |   |   |   |--- integrity.d.ts
|   |   |   |   |--- integrity.js
|   |   |   |   |--- integrity.js.map
|   |   |   |   |--- pickle.d.ts
|   |   |   |   |--- pickle.js
|   |   |   |   |--- pickle.js.map
|   |   |   |   |--- wrapped-fs.d.ts
|   |   |   |   |--- wrapped-fs.js
|   |   |   |   |--- wrapped-fs.js.map
|   |   |   |--- node_modules
|   |   |   |   |--- balanced-match
|   |   |   |   |   |--- .github
|   |   |   |   |   |   |--- FUNDING.yml
|   |   |   |   |   |--- index.js
|   |   |   |   |   |--- LICENSE.md
|   |   |   |   |   |--- package.json
|   |   |   |   |   |--- README.md
|   |   |   |   |--- brace-expansion
|   |   |   |   |   |--- index.js
|   |   |   |   |   |--- LICENSE
|   |   |   |   |   |--- package.json
|   |   |   |   |   |--- README.md
|   |   |   |   |--- minimatch
|   |   |   |   |   |--- LICENSE
|   |   |   |   |   |--- minimatch.js
|   |   |   |   |   |--- package.json
|   |   |   |   |   |--- README.md
|   |   |   |--- LICENSE.md
|   |   |   |--- package.json
|   |   |   |--- README.md
|   |   |--- fuses
|   |   |   |--- dist
|   |   |   |   |--- bin.d.ts
|   |   |   |   |--- bin.js
|   |   |   |   |--- bin.js.map
|   |   |   |   |--- config.d.ts
|   |   |   |   |--- config.js
|   |   |   |   |--- config.js.map
|   |   |   |   |--- constants.d.ts
|   |   |   |   |--- constants.js
|   |   |   |   |--- constants.js.map
|   |   |   |   |--- index.d.ts
|   |   |   |   |--- index.js
|   |   |   |   |--- index.js.map
|   |   |   |   |--- tsconfig.tsbuildinfo
|   |   |   |--- node_modules
|   |   |   |   |--- fs-extra
|   |   |   |   |   |--- lib
|   |   |   |   |   |   |--- copy
|   |   |   |   |   |   |   |--- copy.js
|   |   |   |   |   |   |   |--- index.js
|   |   |   |   |   |   |--- copy-sync
|   |   |   |   |   |   |   |--- copy-sync.js
|   |   |   |   |   |   |   |--- index.js
|   |   |   |   |   |   |--- empty
|   |   |   |   |   |   |   |--- index.js
|   |   |   |   |   |   |--- ensure
|   |   |   |   |   |   |   |--- file.js
|   |   |   |   |   |   |   |--- index.js
|   |   |   |   |   |   |   |--- link.js
|   |   |   |   |   |   |   |--- symlink-paths.js
|   |   |   |   |   |   |   |--- symlink-type.js
|   |   |   |   |   |   |   |--- symlink.js
|   |   |   |   |   |   |--- fs
|   |   |   |   |   |   |   |--- index.js
|   |   |   |   |   |   |--- json
|   |   |   |   |   |   |   |--- index.js
|   |   |   |   |   |   |   |--- jsonfile.js
|   |   |   |   |   |   |   |--- output-json-sync.js
|   |   |   |   |   |   |   |--- output-json.js
|   |   |   |   |   |   |--- mkdirs
|   |   |   |   |   |   |   |--- index.js
|   |   |   |   |   |   |   |--- make-dir.js
|   |   |   |   |   |   |--- move
|   |   |   |   |   |   |   |--- index.js
|   |   |   |   |   |   |   |--- move.js
|   |   |   |   |   |   |--- move-sync
|   |   |   |   |   |   |   |--- index.js
|   |   |   |   |   |   |   |--- move-sync.js
|   |   |   |   |   |   |--- output
|   |   |   |   |   |   |   |--- index.js
|   |   |   |   |   |   |--- path-exists
|   |   |   |   |   |   |   |--- index.js
|   |   |   |   |   |   |--- remove
|   |   |   |   |   |   |   |--- index.js
|   |   |   |   |   |   |   |--- rimraf.js
|   |   |   |   |   |   |--- util
|   |   |   |   |   |   |   |--- stat.js
|   |   |   |   |   |   |   |--- utimes.js
|   |   |   |   |   |   |--- index.js
|   |   |   |   |   |--- CHANGELOG.md
|   |   |   |   |   |--- LICENSE
|   |   |   |   |   |--- package.json
|   |   |   |   |   |--- README.md
|   |   |   |   |--- jsonfile
|   |   |   |   |   |--- index.js
|   |   |   |   |   |--- LICENSE
|   |   |   |   |   |--- package.json
|   |   |   |   |   |--- README.md
|   |   |   |   |   |--- utils.js
|   |   |   |   |--- universalify
|   |   |   |   |   |--- index.js
|   |   |   |   |   |--- LICENSE
|   |   |   |   |   |--- package.json
|   |   |   |   |   |--- README.md
|   |   |   |--- LICENSE
|   |   |   |--- package.json
|   |   |   |--- README.md
|   |   |--- get
|   |   |   |--- dist
|   |   |   |   |--- cjs
|   |   |   |   |   |--- artifact-utils.d.ts
|   |   |   |   |   |--- artifact-utils.js
|   |   |   |   |   |--- artifact-utils.js.map
|   |   |   |   |   |--- Cache.d.ts
|   |   |   |   |   |--- Cache.js
|   |   |   |   |   |--- Cache.js.map
|   |   |   |   |   |--- downloader-resolver.d.ts
|   |   |   |   |   |--- downloader-resolver.js
|   |   |   |   |   |--- downloader-resolver.js.map
|   |   |   |   |   |--- Downloader.d.ts
|   |   |   |   |   |--- Downloader.js
|   |   |   |   |   |--- Downloader.js.map
|   |   |   |   |   |--- GotDownloader.d.ts
|   |   |   |   |   |--- GotDownloader.js
|   |   |   |   |   |--- GotDownloader.js.map
|   |   |   |   |   |--- index.d.ts
|   |   |   |   |   |--- index.js
|   |   |   |   |   |--- index.js.map
|   |   |   |   |   |--- proxy.d.ts
|   |   |   |   |   |--- proxy.js
|   |   |   |   |   |--- proxy.js.map
|   |   |   |   |   |--- types.d.ts
|   |   |   |   |   |--- types.js
|   |   |   |   |   |--- types.js.map
|   |   |   |   |   |--- utils.d.ts
|   |   |   |   |   |--- utils.js
|   |   |   |   |   |--- utils.js.map
|   |   |   |   |--- esm
|   |   |   |   |   |--- artifact-utils.d.ts
|   |   |   |   |   |--- artifact-utils.js
|   |   |   |   |   |--- artifact-utils.js.map
|   |   |   |   |   |--- Cache.d.ts
|   |   |   |   |   |--- Cache.js
|   |   |   |   |   |--- Cache.js.map
|   |   |   |   |   |--- downloader-resolver.d.ts
|   |   |   |   |   |--- downloader-resolver.js
|   |   |   |   |   |--- downloader-resolver.js.map
|   |   |   |   |   |--- Downloader.d.ts
|   |   |   |   |   |--- Downloader.js
|   |   |   |   |   |--- Downloader.js.map
|   |   |   |   |   |--- GotDownloader.d.ts
|   |   |   |   |   |--- GotDownloader.js
|   |   |   |   |   |--- GotDownloader.js.map
|   |   |   |   |   |--- index.d.ts
|   |   |   |   |   |--- index.js
|   |   |   |   |   |--- index.js.map
|   |   |   |   |   |--- proxy.d.ts
|   |   |   |   |   |--- proxy.js
|   |   |   |   |   |--- proxy.js.map
|   |   |   |   |   |--- types.d.ts
|   |   |   |   |   |--- types.js
|   |   |   |   |   |--- types.js.map
|   |   |   |   |   |--- utils.d.ts
|   |   |   |   |   |--- utils.js
|   |   |   |   |   |--- utils.js.map
|   |   |   |--- LICENSE
|   |   |   |--- package.json
|   |   |   |--- README.md
|   |   |--- notarize
|   |   |   |--- lib
|   |   |   |   |--- check-signature.d.ts
|   |   |   |   |--- check-signature.js
|   |   |   |   |--- check-signature.js.map
|   |   |   |   |--- helpers.d.ts
|   |   |   |   |--- helpers.js
|   |   |   |   |--- helpers.js.map
|   |   |   |   |--- index.d.ts
|   |   |   |   |--- index.js
|   |   |   |   |--- index.js.map
|   |   |   |   |--- legacy.d.ts
|   |   |   |   |--- legacy.js
|   |   |   |   |--- legacy.js.map
|   |   |   |   |--- notarytool.d.ts
|   |   |   |   |--- notarytool.js
|   |   |   |   |--- notarytool.js.map
|   |   |   |   |--- spawn.d.ts
|   |   |   |   |--- spawn.js
|   |   |   |   |--- spawn.js.map
|   |   |   |   |--- staple.d.ts
|   |   |   |   |--- staple.js
|   |   |   |   |--- staple.js.map
|   |   |   |   |--- types.d.ts
|   |   |   |   |--- types.js
|   |   |   |   |--- types.js.map
|   |   |   |   |--- validate-args.d.ts
|   |   |   |   |--- validate-args.js
|   |   |   |   |--- validate-args.js.map
|   |   |   |--- node_modules
|   |   |   |   |--- fs-extra
|   |   |   |   |   |--- lib
|   |   |   |   |   |   |--- copy
|   |   |   |   |   |   |   |--- copy.js
|   |   |   |   |   |   |   |--- index.js
|   |   |   |   |   |   |--- copy-sync
|   |   |   |   |   |   |   |--- copy-sync.js
|   |   |   |   |   |   |   |--- index.js
|   |   |   |   |   |   |--- empty
|   |   |   |   |   |   |   |--- index.js
|   |   |   |   |   |   |--- ensure
|   |   |   |   |   |   |   |--- file.js
|   |   |   |   |   |   |   |--- index.js
|   |   |   |   |   |   |   |--- link.js
|   |   |   |   |   |   |   |--- symlink-paths.js
|   |   |   |   |   |   |   |--- symlink-type.js
|   |   |   |   |   |   |   |--- symlink.js
|   |   |   |   |   |   |--- fs
|   |   |   |   |   |   |   |--- index.js
|   |   |   |   |   |   |--- json
|   |   |   |   |   |   |   |--- index.js
|   |   |   |   |   |   |   |--- jsonfile.js
|   |   |   |   |   |   |   |--- output-json-sync.js
|   |   |   |   |   |   |   |--- output-json.js
|   |   |   |   |   |   |--- mkdirs
|   |   |   |   |   |   |   |--- index.js
|   |   |   |   |   |   |   |--- make-dir.js
|   |   |   |   |   |   |--- move
|   |   |   |   |   |   |   |--- index.js
|   |   |   |   |   |   |   |--- move.js
|   |   |   |   |   |   |--- move-sync
|   |   |   |   |   |   |   |--- index.js
|   |   |   |   |   |   |   |--- move-sync.js
|   |   |   |   |   |   |--- output
|   |   |   |   |   |   |   |--- index.js
|   |   |   |   |   |   |--- path-exists
|   |   |   |   |   |   |   |--- index.js
|   |   |   |   |   |   |--- remove
|   |   |   |   |   |   |   |--- index.js
|   |   |   |   |   |   |   |--- rimraf.js
|   |   |   |   |   |   |--- util
|   |   |   |   |   |   |   |--- stat.js
|   |   |   |   |   |   |   |--- utimes.js
|   |   |   |   |   |   |--- index.js
|   |   |   |   |   |--- CHANGELOG.md
|   |   |   |   |   |--- LICENSE
|   |   |   |   |   |--- package.json
|   |   |   |   |   |--- README.md
|   |   |   |   |--- jsonfile
|   |   |   |   |   |--- index.js
|   |   |   |   |   |--- LICENSE
|   |   |   |   |   |--- package.json
|   |   |   |   |   |--- README.md
|   |   |   |   |   |--- utils.js
|   |   |   |   |--- universalify
|   |   |   |   |   |--- index.js
|   |   |   |   |   |--- LICENSE
|   |   |   |   |   |--- package.json
|   |   |   |   |   |--- README.md
|   |   |   |--- LICENSE
|   |   |   |--- package.json
|   |   |   |--- README.md
|   |   |--- osx-sign
|   |   |   |--- bin
|   |   |   |   |--- electron-osx-flat-usage.txt
|   |   |   |   |--- electron-osx-flat.js
|   |   |   |   |--- electron-osx-sign-usage.txt
|   |   |   |   |--- electron-osx-sign.js
|   |   |   |--- dist
|   |   |   |   |--- cjs
|   |   |   |   |   |--- flat.d.ts
|   |   |   |   |   |--- flat.js
|   |   |   |   |   |--- flat.js.map
|   |   |   |   |   |--- index.d.ts
|   |   |   |   |   |--- index.js
|   |   |   |   |   |--- index.js.map
|   |   |   |   |   |--- sign.d.ts
|   |   |   |   |   |--- sign.js
|   |   |   |   |   |--- sign.js.map
|   |   |   |   |   |--- types.d.ts
|   |   |   |   |   |--- types.js
|   |   |   |   |   |--- types.js.map
|   |   |   |   |   |--- util-entitlements.d.ts
|   |   |   |   |   |--- util-entitlements.js
|   |   |   |   |   |--- util-entitlements.js.map
|   |   |   |   |   |--- util-identities.d.ts
|   |   |   |   |   |--- util-identities.js
|   |   |   |   |   |--- util-identities.js.map
|   |   |   |   |   |--- util-provisioning-profiles.d.ts
|   |   |   |   |   |--- util-provisioning-profiles.js
|   |   |   |   |   |--- util-provisioning-profiles.js.map
|   |   |   |   |   |--- util.d.ts
|   |   |   |   |   |--- util.js
|   |   |   |   |   |--- util.js.map
|   |   |   |   |--- esm
|   |   |   |   |   |--- flat.d.ts
|   |   |   |   |   |--- flat.js
|   |   |   |   |   |--- flat.js.map
|   |   |   |   |   |--- index.d.ts
|   |   |   |   |   |--- index.js
|   |   |   |   |   |--- index.js.map
|   |   |   |   |   |--- sign.d.ts
|   |   |   |   |   |--- sign.js
|   |   |   |   |   |--- sign.js.map
|   |   |   |   |   |--- types.d.ts
|   |   |   |   |   |--- types.js
|   |   |   |   |   |--- types.js.map
|   |   |   |   |   |--- util-entitlements.d.ts
|   |   |   |   |   |--- util-entitlements.js
|   |   |   |   |   |--- util-entitlements.js.map
|   |   |   |   |   |--- util-identities.d.ts
|   |   |   |   |   |--- util-identities.js
|   |   |   |   |   |--- util-identities.js.map
|   |   |   |   |   |--- util-provisioning-profiles.d.ts
|   |   |   |   |   |--- util-provisioning-profiles.js
|   |   |   |   |   |--- util-provisioning-profiles.js.map
|   |   |   |   |   |--- util.d.ts
|   |   |   |   |   |--- util.js
|   |   |   |   |   |--- util.js.map
|   |   |   |--- entitlements
|   |   |   |   |--- default.darwin.gpu.plist
|   |   |   |   |--- default.darwin.plist
|   |   |   |   |--- default.darwin.plugin.plist
|   |   |   |   |--- default.darwin.renderer.plist
|   |   |   |   |--- default.mas.child.plist
|   |   |   |   |--- default.mas.plist
|   |   |   |--- node_modules
|   |   |   |   |--- fs-extra
|   |   |   |   |   |--- lib
|   |   |   |   |   |   |--- copy
|   |   |   |   |   |   |   |--- copy-sync.js
|   |   |   |   |   |   |   |--- copy.js
|   |   |   |   |   |   |   |--- index.js
|   |   |   |   |   |   |--- empty
|   |   |   |   |   |   |   |--- index.js
|   |   |   |   |   |   |--- ensure
|   |   |   |   |   |   |   |--- file.js
|   |   |   |   |   |   |   |--- index.js
|   |   |   |   |   |   |   |--- link.js
|   |   |   |   |   |   |   |--- symlink-paths.js
|   |   |   |   |   |   |   |--- symlink-type.js
|   |   |   |   |   |   |   |--- symlink.js
|   |   |   |   |   |   |--- fs
|   |   |   |   |   |   |   |--- index.js
|   |   |   |   |   |   |--- json
|   |   |   |   |   |   |   |--- index.js
|   |   |   |   |   |   |   |--- jsonfile.js
|   |   |   |   |   |   |   |--- output-json-sync.js
|   |   |   |   |   |   |   |--- output-json.js
|   |   |   |   |   |   |--- mkdirs
|   |   |   |   |   |   |   |--- index.js
|   |   |   |   |   |   |   |--- make-dir.js
|   |   |   |   |   |   |   |--- utils.js
|   |   |   |   |   |   |--- move
|   |   |   |   |   |   |   |--- index.js
|   |   |   |   |   |   |   |--- move-sync.js
|   |   |   |   |   |   |   |--- move.js
|   |   |   |   |   |   |--- output-file
|   |   |   |   |   |   |   |--- index.js
|   |   |   |   |   |   |--- path-exists
|   |   |   |   |   |   |   |--- index.js
|   |   |   |   |   |   |--- remove
|   |   |   |   |   |   |   |--- index.js
|   |   |   |   |   |   |   |--- rimraf.js
|   |   |   |   |   |   |--- util
|   |   |   |   |   |   |   |--- stat.js
|   |   |   |   |   |   |   |--- utimes.js
|   |   |   |   |   |   |--- index.js
|   |   |   |   |   |--- LICENSE
|   |   |   |   |   |--- package.json
|   |   |   |   |   |--- README.md
|   |   |   |   |--- isbinaryfile
|   |   |   |   |   |--- lib
|   |   |   |   |   |   |--- index.d.ts
|   |   |   |   |   |   |--- index.js
|   |   |   |   |   |--- LICENSE.txt
|   |   |   |   |   |--- package.json
|   |   |   |   |   |--- README.md
|   |   |   |   |--- jsonfile
|   |   |   |   |   |--- index.js
|   |   |   |   |   |--- LICENSE
|   |   |   |   |   |--- package.json
|   |   |   |   |   |--- README.md
|   |   |   |   |   |--- utils.js
|   |   |   |   |--- universalify
|   |   |   |   |   |--- index.js
|   |   |   |   |   |--- LICENSE
|   |   |   |   |   |--- package.json
|   |   |   |   |   |--- README.md
|   |   |   |--- LICENSE
|   |   |   |--- package.json
|   |   |   |--- README.md
|   |   |--- rebuild
|   |   |   |--- lib
|   |   |   |   |--- module-type
|   |   |   |   |   |--- node-gyp
|   |   |   |   |   |   |--- node-gyp.d.ts
|   |   |   |   |   |   |--- node-gyp.js
|   |   |   |   |   |   |--- node-gyp.js.map
|   |   |   |   |   |   |--- worker.d.ts
|   |   |   |   |   |   |--- worker.js
|   |   |   |   |   |   |--- worker.js.map
|   |   |   |   |   |--- index.d.ts
|   |   |   |   |   |--- index.js
|   |   |   |   |   |--- index.js.map
|   |   |   |   |   |--- node-pre-gyp.d.ts
|   |   |   |   |   |--- node-pre-gyp.js
|   |   |   |   |   |--- node-pre-gyp.js.map
|   |   |   |   |   |--- prebuild-install.d.ts
|   |   |   |   |   |--- prebuild-install.js
|   |   |   |   |   |--- prebuild-install.js.map
|   |   |   |   |   |--- prebuildify.d.ts
|   |   |   |   |   |--- prebuildify.js
|   |   |   |   |   |--- prebuildify.js.map
|   |   |   |   |--- arch.d.ts
|   |   |   |   |--- arch.js
|   |   |   |   |--- arch.js.map
|   |   |   |   |--- cache.d.ts
|   |   |   |   |--- cache.js
|   |   |   |   |--- cache.js.map
|   |   |   |   |--- clang-fetcher.d.ts
|   |   |   |   |--- clang-fetcher.js
|   |   |   |   |--- clang-fetcher.js.map
|   |   |   |   |--- cli.d.ts
|   |   |   |   |--- cli.js
|   |   |   |   |--- cli.js.map
|   |   |   |   |--- constants.d.ts
|   |   |   |   |--- constants.js
|   |   |   |   |--- constants.js.map
|   |   |   |   |--- electron-locator.d.ts
|   |   |   |   |--- electron-locator.js
|   |   |   |   |--- electron-locator.js.map
|   |   |   |   |--- fetcher.d.ts
|   |   |   |   |--- fetcher.js
|   |   |   |   |--- fetcher.js.map
|   |   |   |   |--- main.d.ts
|   |   |   |   |--- main.js
|   |   |   |   |--- main.js.map
|   |   |   |   |--- module-rebuilder.d.ts
|   |   |   |   |--- module-rebuilder.js
|   |   |   |   |--- module-rebuilder.js.map
|   |   |   |   |--- module-walker.d.ts
|   |   |   |   |--- module-walker.js
|   |   |   |   |--- module-walker.js.map
|   |   |   |   |--- node-api.d.ts
|   |   |   |   |--- node-api.js
|   |   |   |   |--- node-api.js.map
|   |   |   |   |--- prebuild-shim.d.ts
|   |   |   |   |--- prebuild-shim.js
|   |   |   |   |--- prebuild-shim.js.map
|   |   |   |   |--- promisifiedGracefulFs.d.ts
|   |   |   |   |--- promisifiedGracefulFs.js
|   |   |   |   |--- promisifiedGracefulFs.js.map
|   |   |   |   |--- read-package-json.d.ts
|   |   |   |   |--- read-package-json.js
|   |   |   |   |--- read-package-json.js.map
|   |   |   |   |--- rebuild.d.ts
|   |   |   |   |--- rebuild.js
|   |   |   |   |--- rebuild.js.map
|   |   |   |   |--- search-module.d.ts
|   |   |   |   |--- search-module.js
|   |   |   |   |--- search-module.js.map
|   |   |   |   |--- sysroot-fetcher.d.ts
|   |   |   |   |--- sysroot-fetcher.js
|   |   |   |   |--- sysroot-fetcher.js.map
|   |   |   |   |--- types.d.ts
|   |   |   |   |--- types.js
|   |   |   |   |--- types.js.map
|   |   |   |--- node_modules
|   |   |   |   |--- .bin
|   |   |   |   |   |--- semver
|   |   |   |   |   |--- semver.cmd
|   |   |   |   |   |--- semver.ps1
|   |   |   |   |--- semver
|   |   |   |   |   |--- bin
|   |   |   |   |   |   |--- semver.js
|   |   |   |   |   |--- classes
|   |   |   |   |   |   |--- comparator.js
|   |   |   |   |   |   |--- index.js
|   |   |   |   |   |   |--- range.js
|   |   |   |   |   |   |--- semver.js
|   |   |   |   |   |--- functions
|   |   |   |   |   |   |--- clean.js
|   |   |   |   |   |   |--- cmp.js
|   |   |   |   |   |   |--- coerce.js
|   |   |   |   |   |   |--- compare-build.js
|   |   |   |   |   |   |--- compare-loose.js
|   |   |   |   |   |   |--- compare.js
|   |   |   |   |   |   |--- diff.js
|   |   |   |   |   |   |--- eq.js
|   |   |   |   |   |   |--- gt.js
|   |   |   |   |   |   |--- gte.js
|   |   |   |   |   |   |--- inc.js
|   |   |   |   |   |   |--- lt.js
|   |   |   |   |   |   |--- lte.js
|   |   |   |   |   |   |--- major.js
|   |   |   |   |   |   |--- minor.js
|   |   |   |   |   |   |--- neq.js
|   |   |   |   |   |   |--- parse.js
|   |   |   |   |   |   |--- patch.js
|   |   |   |   |   |   |--- prerelease.js
|   |   |   |   |   |   |--- rcompare.js
|   |   |   |   |   |   |--- rsort.js
|   |   |   |   |   |   |--- satisfies.js
|   |   |   |   |   |   |--- sort.js
|   |   |   |   |   |   |--- valid.js
|   |   |   |   |   |--- internal
|   |   |   |   |   |   |--- constants.js
|   |   |   |   |   |   |--- debug.js
|   |   |   |   |   |   |--- identifiers.js
|   |   |   |   |   |   |--- lrucache.js
|   |   |   |   |   |   |--- parse-options.js
|   |   |   |   |   |   |--- re.js
|   |   |   |   |   |--- ranges
|   |   |   |   |   |   |--- gtr.js
|   |   |   |   |   |   |--- intersects.js
|   |   |   |   |   |   |--- ltr.js
|   |   |   |   |   |   |--- max-satisfying.js
|   |   |   |   |   |   |--- min-satisfying.js
|   |   |   |   |   |   |--- min-version.js
|   |   |   |   |   |   |--- outside.js
|   |   |   |   |   |   |--- simplify.js
|   |   |   |   |   |   |--- subset.js
|   |   |   |   |   |   |--- to-comparators.js
|   |   |   |   |   |   |--- valid.js
|   |   |   |   |   |--- index.js
|   |   |   |   |   |--- LICENSE
|   |   |   |   |   |--- package.json
|   |   |   |   |   |--- preload.js
|   |   |   |   |   |--- range.bnf
|   |   |   |   |   |--- README.md
|   |   |   |--- LICENSE
|   |   |   |--- package.json
|   |   |   |--- README.md
|   |   |--- universal
|   |   |   |--- dist
|   |   |   |   |--- cjs
|   |   |   |   |   |--- asar-utils.d.ts
|   |   |   |   |   |--- asar-utils.js
|   |   |   |   |   |--- asar-utils.js.map
|   |   |   |   |   |--- debug.d.ts
|   |   |   |   |   |--- debug.js
|   |   |   |   |   |--- debug.js.map
|   |   |   |   |   |--- file-utils.d.ts
|   |   |   |   |   |--- file-utils.js
|   |   |   |   |   |--- file-utils.js.map
|   |   |   |   |   |--- index.d.ts
|   |   |   |   |   |--- index.js
|   |   |   |   |   |--- index.js.map
|   |   |   |   |   |--- integrity.d.ts
|   |   |   |   |   |--- integrity.js
|   |   |   |   |   |--- integrity.js.map
|   |   |   |   |   |--- sha.d.ts
|   |   |   |   |   |--- sha.js
|   |   |   |   |   |--- sha.js.map
|   |   |   |   |--- esm
|   |   |   |   |   |--- asar-utils.d.ts
|   |   |   |   |   |--- asar-utils.js
|   |   |   |   |   |--- asar-utils.js.map
|   |   |   |   |   |--- debug.d.ts
|   |   |   |   |   |--- debug.js
|   |   |   |   |   |--- debug.js.map
|   |   |   |   |   |--- file-utils.d.ts
|   |   |   |   |   |--- file-utils.js
|   |   |   |   |   |--- file-utils.js.map
|   |   |   |   |   |--- index.d.ts
|   |   |   |   |   |--- index.js
|   |   |   |   |   |--- index.js.map
|   |   |   |   |   |--- integrity.d.ts
|   |   |   |   |   |--- integrity.js
|   |   |   |   |   |--- integrity.js.map
|   |   |   |   |   |--- sha.d.ts
|   |   |   |   |   |--- sha.js
|   |   |   |   |   |--- sha.js.map
|   |   |   |--- entry-asar
|   |   |   |   |--- has-asar.js
|   |   |   |   |--- has-asar.js.map
|   |   |   |   |--- no-asar.js
|   |   |   |   |--- no-asar.js.map
|   |   |   |--- node_modules
|   |   |   |   |--- balanced-match
|   |   |   |   |   |--- .github
|   |   |   |   |   |   |--- FUNDING.yml
|   |   |   |   |   |--- index.js
|   |   |   |   |   |--- LICENSE.md
|   |   |   |   |   |--- package.json
|   |   |   |   |   |--- README.md
|   |   |   |   |--- brace-expansion
|   |   |   |   |   |--- .github
|   |   |   |   |   |   |--- FUNDING.yml
|   |   |   |   |   |--- index.js
|   |   |   |   |   |--- LICENSE
|   |   |   |   |   |--- package.json
|   |   |   |   |   |--- README.md
|   |   |   |   |--- fs-extra
|   |   |   |   |   |--- lib
|   |   |   |   |   |   |--- copy
|   |   |   |   |   |   |   |--- copy-sync.js
|   |   |   |   |   |   |   |--- copy.js
|   |   |   |   |   |   |   |--- index.js
|   |   |   |   |   |   |--- empty
|   |   |   |   |   |   |   |--- index.js
|   |   |   |   |   |   |--- ensure
|   |   |   |   |   |   |   |--- file.js
|   |   |   |   |   |   |   |--- index.js
|   |   |   |   |   |   |   |--- link.js
|   |   |   |   |   |   |   |--- symlink-paths.js
|   |   |   |   |   |   |   |--- symlink-type.js
|   |   |   |   |   |   |   |--- symlink.js
|   |   |   |   |   |   |--- fs
|   |   |   |   |   |   |   |--- index.js
|   |   |   |   |   |   |--- json
|   |   |   |   |   |   |   |--- index.js
|   |   |   |   |   |   |   |--- jsonfile.js
|   |   |   |   |   |   |   |--- output-json-sync.js
|   |   |   |   |   |   |   |--- output-json.js
|   |   |   |   |   |   |--- mkdirs
|   |   |   |   |   |   |   |--- index.js
|   |   |   |   |   |   |   |--- make-dir.js
|   |   |   |   |   |   |   |--- utils.js
|   |   |   |   |   |   |--- move
|   |   |   |   |   |   |   |--- index.js
|   |   |   |   |   |   |   |--- move-sync.js
|   |   |   |   |   |   |   |--- move.js
|   |   |   |   |   |   |--- output-file
|   |   |   |   |   |   |   |--- index.js
|   |   |   |   |   |   |--- path-exists
|   |   |   |   |   |   |   |--- index.js
|   |   |   |   |   |   |--- remove
|   |   |   |   |   |   |   |--- index.js
|   |   |   |   |   |   |--- util
|   |   |   |   |   |   |   |--- async.js
|   |   |   |   |   |   |   |--- stat.js
|   |   |   |   |   |   |   |--- utimes.js
|   |   |   |   |   |   |--- esm.mjs
|   |   |   |   |   |   |--- index.js
|   |   |   |   |   |--- LICENSE
|   |   |   |   |   |--- package.json
|   |   |   |   |   |--- README.md
|   |   |   |   |--- jsonfile
|   |   |   |   |   |--- index.js
|   |   |   |   |   |--- LICENSE
|   |   |   |   |   |--- package.json
|   |   |   |   |   |--- README.md
|   |   |   |   |   |--- utils.js
|   |   |   |   |--- minimatch
|   |   |   |   |   |--- dist
|   |   |   |   |   |   |--- commonjs
|   |   |   |   |   |   |   |--- assert-valid-pattern.d.ts
|   |   |   |   |   |   |   |--- assert-valid-pattern.d.ts.map
|   |   |   |   |   |   |   |--- assert-valid-pattern.js
|   |   |   |   |   |   |   |--- assert-valid-pattern.js.map
|   |   |   |   |   |   |   |--- ast.d.ts
|   |   |   |   |   |   |   |--- ast.d.ts.map
|   |   |   |   |   |   |   |--- ast.js
|   |   |   |   |   |   |   |--- ast.js.map
|   |   |   |   |   |   |   |--- brace-expressions.d.ts
|   |   |   |   |   |   |   |--- brace-expressions.d.ts.map
|   |   |   |   |   |   |   |--- brace-expressions.js
|   |   |   |   |   |   |   |--- brace-expressions.js.map
|   |   |   |   |   |   |   |--- escape.d.ts
|   |   |   |   |   |   |   |--- escape.d.ts.map
|   |   |   |   |   |   |   |--- escape.js
|   |   |   |   |   |   |   |--- escape.js.map
|   |   |   |   |   |   |   |--- index.d.ts
|   |   |   |   |   |   |   |--- index.d.ts.map
|   |   |   |   |   |   |   |--- index.js
|   |   |   |   |   |   |   |--- index.js.map
|   |   |   |   |   |   |   |--- package.json
|   |   |   |   |   |   |   |--- unescape.d.ts
|   |   |   |   |   |   |   |--- unescape.d.ts.map
|   |   |   |   |   |   |   |--- unescape.js
|   |   |   |   |   |   |   |--- unescape.js.map
|   |   |   |   |   |   |--- esm
|   |   |   |   |   |   |   |--- assert-valid-pattern.d.ts
|   |   |   |   |   |   |   |--- assert-valid-pattern.d.ts.map
|   |   |   |   |   |   |   |--- assert-valid-pattern.js
|   |   |   |   |   |   |   |--- assert-valid-pattern.js.map
|   |   |   |   |   |   |   |--- ast.d.ts
|   |   |   |   |   |   |   |--- ast.d.ts.map
|   |   |   |   |   |   |   |--- ast.js
|   |   |   |   |   |   |   |--- ast.js.map
|   |   |   |   |   |   |   |--- brace-expressions.d.ts
|   |   |   |   |   |   |   |--- brace-expressions.d.ts.map
|   |   |   |   |   |   |   |--- brace-expressions.js
|   |   |   |   |   |   |   |--- brace-expressions.js.map
|   |   |   |   |   |   |   |--- escape.d.ts
|   |   |   |   |   |   |   |--- escape.d.ts.map
|   |   |   |   |   |   |   |--- escape.js
|   |   |   |   |   |   |   |--- escape.js.map
|   |   |   |   |   |   |   |--- index.d.ts
|   |   |   |   |   |   |   |--- index.d.ts.map
|   |   |   |   |   |   |   |--- index.js
|   |   |   |   |   |   |   |--- index.js.map
|   |   |   |   |   |   |   |--- package.json
|   |   |   |   |   |   |   |--- unescape.d.ts
|   |   |   |   |   |   |   |--- unescape.d.ts.map
|   |   |   |   |   |   |   |--- unescape.js
|   |   |   |   |   |   |   |--- unescape.js.map
|   |   |   |   |   |--- LICENSE
|   |   |   |   |   |--- package.json
|   |   |   |   |   |--- README.md
|   |   |   |   |--- universalify
|   |   |   |   |   |--- index.js
|   |   |   |   |   |--- LICENSE
|   |   |   |   |   |--- package.json
|   |   |   |   |   |--- README.md
|   |   |   |--- LICENSE
|   |   |   |--- package.json
|   |   |   |--- README.md
|   |   |--- windows-sign
|   |   |   |--- bin
|   |   |   |   |--- electron-windows-sign-usage.txt
|   |   |   |   |--- electron-windows-sign.js
|   |   |   |--- dist
|   |   |   |   |--- cjs
|   |   |   |   |   |--- utils
|   |   |   |   |   |   |--- log.d.ts
|   |   |   |   |   |   |--- log.js
|   |   |   |   |   |   |--- parse-env.d.ts
|   |   |   |   |   |   |--- parse-env.js
|   |   |   |   |   |--- files.d.ts
|   |   |   |   |   |--- files.js
|   |   |   |   |   |--- index.d.ts
|   |   |   |   |   |--- index.js
|   |   |   |   |   |--- sea.d.ts
|   |   |   |   |   |--- sea.js
|   |   |   |   |   |--- sign-with-hook.d.ts
|   |   |   |   |   |--- sign-with-hook.js
|   |   |   |   |   |--- sign-with-signtool.d.ts
|   |   |   |   |   |--- sign-with-signtool.js
|   |   |   |   |   |--- sign.d.ts
|   |   |   |   |   |--- sign.js
|   |   |   |   |   |--- spawn.d.ts
|   |   |   |   |   |--- spawn.js
|   |   |   |   |   |--- types.d.ts
|   |   |   |   |   |--- types.js
|   |   |   |   |--- esm
|   |   |   |   |   |--- utils
|   |   |   |   |   |   |--- log.d.ts
|   |   |   |   |   |   |--- log.js
|   |   |   |   |   |   |--- parse-env.d.ts
|   |   |   |   |   |   |--- parse-env.js
|   |   |   |   |   |--- files.d.ts
|   |   |   |   |   |--- files.js
|   |   |   |   |   |--- index.d.ts
|   |   |   |   |   |--- index.js
|   |   |   |   |   |--- sea.d.ts
|   |   |   |   |   |--- sea.js
|   |   |   |   |   |--- sign-with-hook.d.ts
|   |   |   |   |   |--- sign-with-hook.js
|   |   |   |   |   |--- sign-with-signtool.d.ts
|   |   |   |   |   |--- sign-with-signtool.js
|   |   |   |   |   |--- sign.d.ts
|   |   |   |   |   |--- sign.js
|   |   |   |   |   |--- spawn.d.ts
|   |   |   |   |   |--- spawn.js
|   |   |   |   |   |--- types.d.ts
|   |   |   |   |   |--- types.js
|   |   |   |--- node_modules
|   |   |   |   |--- fs-extra
|   |   |   |   |   |--- lib
|   |   |   |   |   |   |--- copy
|   |   |   |   |   |   |   |--- copy-sync.js
|   |   |   |   |   |   |   |--- copy.js
|   |   |   |   |   |   |   |--- index.js
|   |   |   |   |   |   |--- empty
|   |   |   |   |   |   |   |--- index.js
|   |   |   |   |   |   |--- ensure
|   |   |   |   |   |   |   |--- file.js
|   |   |   |   |   |   |   |--- index.js
|   |   |   |   |   |   |   |--- link.js
|   |   |   |   |   |   |   |--- symlink-paths.js
|   |   |   |   |   |   |   |--- symlink-type.js
|   |   |   |   |   |   |   |--- symlink.js
|   |   |   |   |   |   |--- fs
|   |   |   |   |   |   |   |--- index.js
|   |   |   |   |   |   |--- json
|   |   |   |   |   |   |   |--- index.js
|   |   |   |   |   |   |   |--- jsonfile.js
|   |   |   |   |   |   |   |--- output-json-sync.js
|   |   |   |   |   |   |   |--- output-json.js
|   |   |   |   |   |   |--- mkdirs
|   |   |   |   |   |   |   |--- index.js
|   |   |   |   |   |   |   |--- make-dir.js
|   |   |   |   |   |   |   |--- utils.js
|   |   |   |   |   |   |--- move
|   |   |   |   |   |   |   |--- index.js
|   |   |   |   |   |   |   |--- move-sync.js
|   |   |   |   |   |   |   |--- move.js
|   |   |   |   |   |   |--- output-file
|   |   |   |   |   |   |   |--- index.js
|   |   |   |   |   |   |--- path-exists
|   |   |   |   |   |   |   |--- index.js
|   |   |   |   |   |   |--- remove
|   |   |   |   |   |   |   |--- index.js
|   |   |   |   |   |   |--- util
|   |   |   |   |   |   |   |--- async.js
|   |   |   |   |   |   |   |--- stat.js
|   |   |   |   |   |   |   |--- utimes.js
|   |   |   |   |   |   |--- esm.mjs
|   |   |   |   |   |   |--- index.js
|   |   |   |   |   |--- LICENSE
|   |   |   |   |   |--- package.json
|   |   |   |   |   |--- README.md
|   |   |   |   |--- jsonfile
|   |   |   |   |   |--- index.js
|   |   |   |   |   |--- LICENSE
|   |   |   |   |   |--- package.json
|   |   |   |   |   |--- README.md
|   |   |   |   |   |--- utils.js
|   |   |   |   |--- universalify
|   |   |   |   |   |--- index.js
|   |   |   |   |   |--- LICENSE
|   |   |   |   |   |--- package.json
|   |   |   |   |   |--- README.md
|   |   |   |--- vendor
|   |   |   |   |--- signtool.exe
|   |   |   |--- LICENSE
|   |   |   |--- package.json
|   |   |   |--- README.md
|   |--- @firebase
|   |   |--- ai
|   |   |   |--- dist
|   |   |   |   |--- esm
|   |   |   |   |   |--- src
|   |   |   |   |   |   |--- methods
|   |   |   |   |   |   |   |--- chat-session-helpers.d.ts
|   |   |   |   |   |   |   |--- chat-session.d.ts
|   |   |   |   |   |   |   |--- chrome-adapter.d.ts
|   |   |   |   |   |   |   |--- count-tokens.d.ts
|   |   |   |   |   |   |   |--- generate-content.d.ts
|   |   |   |   |   |   |   |--- live-session-helpers.d.ts
|   |   |   |   |   |   |   |--- live-session.d.ts
|   |   |   |   |   |   |--- models
|   |   |   |   |   |   |   |--- ai-model.d.ts
|   |   |   |   |   |   |   |--- generative-model.d.ts
|   |   |   |   |   |   |   |--- imagen-model.d.ts
|   |   |   |   |   |   |   |--- index.d.ts
|   |   |   |   |   |   |   |--- live-generative-model.d.ts
|   |   |   |   |   |   |   |--- template-generative-model.d.ts
|   |   |   |   |   |   |   |--- template-imagen-model.d.ts
|   |   |   |   |   |   |   |--- utils.d.ts
|   |   |   |   |   |   |--- requests
|   |   |   |   |   |   |   |--- hybrid-helpers.d.ts
|   |   |   |   |   |   |   |--- imagen-image-format.d.ts
|   |   |   |   |   |   |   |--- request-helpers.d.ts
|   |   |   |   |   |   |   |--- request.d.ts
|   |   |   |   |   |   |   |--- response-helpers.d.ts
|   |   |   |   |   |   |   |--- schema-builder.d.ts
|   |   |   |   |   |   |   |--- stream-reader.d.ts
|   |   |   |   |   |   |--- types
|   |   |   |   |   |   |   |--- imagen
|   |   |   |   |   |   |   |   |--- index.d.ts
|   |   |   |   |   |   |   |   |--- internal.d.ts
|   |   |   |   |   |   |   |   |--- requests.d.ts
|   |   |   |   |   |   |   |   |--- responses.d.ts
|   |   |   |   |   |   |   |--- chrome-adapter.d.ts
|   |   |   |   |   |   |   |--- content.d.ts
|   |   |   |   |   |   |   |--- enums.d.ts
|   |   |   |   |   |   |   |--- error.d.ts
|   |   |   |   |   |   |   |--- googleai.d.ts
|   |   |   |   |   |   |   |--- index.d.ts
|   |   |   |   |   |   |   |--- internal.d.ts
|   |   |   |   |   |   |   |--- language-model.d.ts
|   |   |   |   |   |   |   |--- live-responses.d.ts
|   |   |   |   |   |   |   |--- requests.d.ts
|   |   |   |   |   |   |   |--- responses.d.ts
|   |   |   |   |   |   |   |--- schema.d.ts
|   |   |   |   |   |   |--- api.d.ts
|   |   |   |   |   |   |--- backend.d.ts
|   |   |   |   |   |   |--- constants.d.ts
|   |   |   |   |   |   |--- errors.d.ts
|   |   |   |   |   |   |--- factory-browser.d.ts
|   |   |   |   |   |   |--- factory-node.d.ts
|   |   |   |   |   |   |--- googleai-mappers.d.ts
|   |   |   |   |   |   |--- helpers.d.ts
|   |   |   |   |   |   |--- index.d.ts
|   |   |   |   |   |   |--- index.node.d.ts
|   |   |   |   |   |   |--- logger.d.ts
|   |   |   |   |   |   |--- public-types.d.ts
|   |   |   |   |   |   |--- service.d.ts
|   |   |   |   |   |   |--- websocket.d.ts
|   |   |   |   |   |--- index.esm.js
|   |   |   |   |   |--- index.esm.js.map
|   |   |   |   |   |--- package.json
|   |   |   |   |--- src
|   |   |   |   |   |--- methods
|   |   |   |   |   |   |--- chat-session-helpers.d.ts
|   |   |   |   |   |   |--- chat-session.d.ts
|   |   |   |   |   |   |--- chrome-adapter.d.ts
|   |   |   |   |   |   |--- count-tokens.d.ts
|   |   |   |   |   |   |--- generate-content.d.ts
|   |   |   |   |   |   |--- live-session-helpers.d.ts
|   |   |   |   |   |   |--- live-session.d.ts
|   |   |   |   |   |--- models
|   |   |   |   |   |   |--- ai-model.d.ts
|   |   |   |   |   |   |--- generative-model.d.ts
|   |   |   |   |   |   |--- imagen-model.d.ts
|   |   |   |   |   |   |--- index.d.ts
|   |   |   |   |   |   |--- live-generative-model.d.ts
|   |   |   |   |   |   |--- template-generative-model.d.ts
|   |   |   |   |   |   |--- template-imagen-model.d.ts
|   |   |   |   |   |   |--- utils.d.ts
|   |   |   |   |   |--- requests
|   |   |   |   |   |   |--- hybrid-helpers.d.ts
|   |   |   |   |   |   |--- imagen-image-format.d.ts
|   |   |   |   |   |   |--- request-helpers.d.ts
|   |   |   |   |   |   |--- request.d.ts
|   |   |   |   |   |   |--- response-helpers.d.ts
|   |   |   |   |   |   |--- schema-builder.d.ts
|   |   |   |   |   |   |--- stream-reader.d.ts
|   |   |   |   |   |--- types
|   |   |   |   |   |   |--- imagen
|   |   |   |   |   |   |   |--- index.d.ts
|   |   |   |   |   |   |   |--- internal.d.ts
|   |   |   |   |   |   |   |--- requests.d.ts
|   |   |   |   |   |   |   |--- responses.d.ts
|   |   |   |   |   |   |--- chrome-adapter.d.ts
|   |   |   |   |   |   |--- content.d.ts
|   |   |   |   |   |   |--- enums.d.ts
|   |   |   |   |   |   |--- error.d.ts
|   |   |   |   |   |   |--- googleai.d.ts
|   |   |   |   |   |   |--- index.d.ts
|   |   |   |   |   |   |--- internal.d.ts
|   |   |   |   |   |   |--- language-model.d.ts
|   |   |   |   |   |   |--- live-responses.d.ts
|   |   |   |   |   |   |--- requests.d.ts
|   |   |   |   |   |   |--- responses.d.ts
|   |   |   |   |   |   |--- schema.d.ts
|   |   |   |   |   |--- api.d.ts
|   |   |   |   |   |--- backend.d.ts
|   |   |   |   |   |--- constants.d.ts
|   |   |   |   |   |--- errors.d.ts
|   |   |   |   |   |--- factory-browser.d.ts
|   |   |   |   |   |--- factory-node.d.ts
|   |   |   |   |   |--- googleai-mappers.d.ts
|   |   |   |   |   |--- helpers.d.ts
|   |   |   |   |   |--- index.d.ts
|   |   |   |   |   |--- index.node.d.ts
|   |   |   |   |   |--- logger.d.ts
|   |   |   |   |   |--- public-types.d.ts
|   |   |   |   |   |--- service.d.ts
|   |   |   |   |   |--- tsdoc-metadata.json
|   |   |   |   |   |--- websocket.d.ts
|   |   |   |   |--- ai-public.d.ts
|   |   |   |   |--- ai.d.ts
|   |   |   |   |--- index.cjs.js
|   |   |   |   |--- index.cjs.js.map
|   |   |   |   |--- index.node.cjs.js
|   |   |   |   |--- index.node.cjs.js.map
|   |   |   |   |--- index.node.mjs
|   |   |   |   |--- index.node.mjs.map
|   |   |   |--- package.json
|   |   |   |--- README.md
|   |   |--- analytics
|   |   |   |--- dist
|   |   |   |   |--- esm
|   |   |   |   |   |--- src
|   |   |   |   |   |   |--- api.d.ts
|   |   |   |   |   |   |--- constants.d.ts
|   |   |   |   |   |   |--- errors.d.ts
|   |   |   |   |   |   |--- factory.d.ts
|   |   |   |   |   |   |--- functions.d.ts
|   |   |   |   |   |   |--- get-config.d.ts
|   |   |   |   |   |   |--- helpers.d.ts
|   |   |   |   |   |   |--- index.d.ts
|   |   |   |   |   |   |--- initialize-analytics.d.ts
|   |   |   |   |   |   |--- logger.d.ts
|   |   |   |   |   |   |--- public-types.d.ts
|   |   |   |   |   |   |--- types.d.ts
|   |   |   |   |   |--- testing
|   |   |   |   |   |   |--- integration-tests
|   |   |   |   |   |   |   |--- integration.d.ts
|   |   |   |   |   |   |--- get-fake-firebase-services.d.ts
|   |   |   |   |   |   |--- gtag-script-util.d.ts
|   |   |   |   |   |   |--- setup.d.ts
|   |   |   |   |   |--- index.esm.js
|   |   |   |   |   |--- index.esm.js.map
|   |   |   |   |   |--- package.json
|   |   |   |   |--- src
|   |   |   |   |   |--- api.d.ts
|   |   |   |   |   |--- constants.d.ts
|   |   |   |   |   |--- errors.d.ts
|   |   |   |   |   |--- factory.d.ts
|   |   |   |   |   |--- functions.d.ts
|   |   |   |   |   |--- get-config.d.ts
|   |   |   |   |   |--- global_index.d.ts
|   |   |   |   |   |--- helpers.d.ts
|   |   |   |   |   |--- index.d.ts
|   |   |   |   |   |--- initialize-analytics.d.ts
|   |   |   |   |   |--- logger.d.ts
|   |   |   |   |   |--- public-types.d.ts
|   |   |   |   |   |--- tsdoc-metadata.json
|   |   |   |   |   |--- types.d.ts
|   |   |   |   |--- testing
|   |   |   |   |   |--- integration-tests
|   |   |   |   |   |   |--- integration.d.ts
|   |   |   |   |   |--- get-fake-firebase-services.d.ts
|   |   |   |   |   |--- gtag-script-util.d.ts
|   |   |   |   |   |--- setup.d.ts
|   |   |   |   |--- analytics-public.d.ts
|   |   |   |   |--- analytics.d.ts
|   |   |   |   |--- index.cjs.js
|   |   |   |   |--- index.cjs.js.map
|   |   |   |--- package.json
|   |   |   |--- README.md
|   |   |--- analytics-compat
|   |   |   |--- dist
|   |   |   |   |--- esm
|   |   |   |   |   |--- src
|   |   |   |   |   |   |--- constants.d.ts
|   |   |   |   |   |   |--- index.d.ts
|   |   |   |   |   |   |--- service.d.ts
|   |   |   |   |   |   |--- service.test.d.ts
|   |   |   |   |   |--- index.esm.js
|   |   |   |   |   |--- index.esm.js.map
|   |   |   |   |   |--- package.json
|   |   |   |   |--- src
|   |   |   |   |   |--- constants.d.ts
|   |   |   |   |   |--- index.d.ts
|   |   |   |   |   |--- service.d.ts
|   |   |   |   |   |--- service.test.d.ts
|   |   |   |   |--- index.cjs.js
|   |   |   |   |--- index.cjs.js.map
|   |   |   |--- package.json
|   |   |   |--- README.md
|   |   |--- analytics-types
|   |   |   |--- index.d.ts
|   |   |   |--- package.json
|   |   |   |--- README.md
|   |   |--- app
|   |   |   |--- dist
|   |   |   |   |--- app
|   |   |   |   |   |--- src
|   |   |   |   |   |   |--- api.d.ts
|   |   |   |   |   |   |--- constants.d.ts
|   |   |   |   |   |   |--- errors.d.ts
|   |   |   |   |   |   |--- firebaseApp.d.ts
|   |   |   |   |   |   |--- firebaseServerApp.d.ts
|   |   |   |   |   |   |--- global_index.d.ts
|   |   |   |   |   |   |--- heartbeatService.d.ts
|   |   |   |   |   |   |--- index.d.ts
|   |   |   |   |   |   |--- indexeddb.d.ts
|   |   |   |   |   |   |--- internal.d.ts
|   |   |   |   |   |   |--- logger.d.ts
|   |   |   |   |   |   |--- platformLoggerService.d.ts
|   |   |   |   |   |   |--- public-types.d.ts
|   |   |   |   |   |   |--- registerCoreComponents.d.ts
|   |   |   |   |   |   |--- tsdoc-metadata.json
|   |   |   |   |   |   |--- types.d.ts
|   |   |   |   |   |--- test
|   |   |   |   |   |   |--- setup.d.ts
|   |   |   |   |   |   |--- util.d.ts
|   |   |   |   |--- esm
|   |   |   |   |   |--- app
|   |   |   |   |   |   |--- src
|   |   |   |   |   |   |   |--- api.d.ts
|   |   |   |   |   |   |   |--- constants.d.ts
|   |   |   |   |   |   |   |--- errors.d.ts
|   |   |   |   |   |   |   |--- firebaseApp.d.ts
|   |   |   |   |   |   |   |--- firebaseServerApp.d.ts
|   |   |   |   |   |   |   |--- heartbeatService.d.ts
|   |   |   |   |   |   |   |--- index.d.ts
|   |   |   |   |   |   |   |--- indexeddb.d.ts
|   |   |   |   |   |   |   |--- internal.d.ts
|   |   |   |   |   |   |   |--- logger.d.ts
|   |   |   |   |   |   |   |--- platformLoggerService.d.ts
|   |   |   |   |   |   |   |--- public-types.d.ts
|   |   |   |   |   |   |   |--- registerCoreComponents.d.ts
|   |   |   |   |   |   |   |--- types.d.ts
|   |   |   |   |   |   |--- test
|   |   |   |   |   |   |   |--- setup.d.ts
|   |   |   |   |   |   |   |--- util.d.ts
|   |   |   |   |   |--- index.esm.js
|   |   |   |   |   |--- index.esm.js.map
|   |   |   |   |   |--- package.json
|   |   |   |   |--- app-public.d.ts
|   |   |   |   |--- app.d.ts
|   |   |   |   |--- index.cjs.js
|   |   |   |   |--- index.cjs.js.map
|   |   |   |--- package.json
|   |   |   |--- README.md
|   |   |--- app-check
|   |   |   |--- dist
|   |   |   |   |--- esm
|   |   |   |   |   |--- src
|   |   |   |   |   |   |--- api.d.ts
|   |   |   |   |   |   |--- api.test.d.ts
|   |   |   |   |   |   |--- client.d.ts
|   |   |   |   |   |   |--- client.test.d.ts
|   |   |   |   |   |   |--- constants.d.ts
|   |   |   |   |   |   |--- debug.d.ts
|   |   |   |   |   |   |--- debug.test.d.ts
|   |   |   |   |   |   |--- errors.d.ts
|   |   |   |   |   |   |--- factory.d.ts
|   |   |   |   |   |   |--- index.d.ts
|   |   |   |   |   |   |--- indexeddb.d.ts
|   |   |   |   |   |   |--- internal-api.d.ts
|   |   |   |   |   |   |--- internal-api.test.d.ts
|   |   |   |   |   |   |--- logger.d.ts
|   |   |   |   |   |   |--- proactive-refresh.d.ts
|   |   |   |   |   |   |--- proactive-refresh.test.d.ts
|   |   |   |   |   |   |--- providers.d.ts
|   |   |   |   |   |   |--- providers.test.d.ts
|   |   |   |   |   |   |--- public-types.d.ts
|   |   |   |   |   |   |--- recaptcha.d.ts
|   |   |   |   |   |   |--- recaptcha.test.d.ts
|   |   |   |   |   |   |--- state.d.ts
|   |   |   |   |   |   |--- storage.d.ts
|   |   |   |   |   |   |--- storage.test.d.ts
|   |   |   |   |   |   |--- types.d.ts
|   |   |   |   |   |   |--- util.d.ts
|   |   |   |   |   |--- test
|   |   |   |   |   |   |--- setup.d.ts
|   |   |   |   |   |   |--- util.d.ts
|   |   |   |   |   |--- index.esm.js
|   |   |   |   |   |--- index.esm.js.map
|   |   |   |   |   |--- package.json
|   |   |   |   |--- src
|   |   |   |   |   |--- api.d.ts
|   |   |   |   |   |--- api.test.d.ts
|   |   |   |   |   |--- client.d.ts
|   |   |   |   |   |--- client.test.d.ts
|   |   |   |   |   |--- constants.d.ts
|   |   |   |   |   |--- debug.d.ts
|   |   |   |   |   |--- debug.test.d.ts
|   |   |   |   |   |--- errors.d.ts
|   |   |   |   |   |--- factory.d.ts
|   |   |   |   |   |--- index.d.ts
|   |   |   |   |   |--- indexeddb.d.ts
|   |   |   |   |   |--- internal-api.d.ts
|   |   |   |   |   |--- internal-api.test.d.ts
|   |   |   |   |   |--- logger.d.ts
|   |   |   |   |   |--- proactive-refresh.d.ts
|   |   |   |   |   |--- proactive-refresh.test.d.ts
|   |   |   |   |   |--- providers.d.ts
|   |   |   |   |   |--- providers.test.d.ts
|   |   |   |   |   |--- public-types.d.ts
|   |   |   |   |   |--- recaptcha.d.ts
|   |   |   |   |   |--- recaptcha.test.d.ts
|   |   |   |   |   |--- state.d.ts
|   |   |   |   |   |--- storage.d.ts
|   |   |   |   |   |--- storage.test.d.ts
|   |   |   |   |   |--- tsdoc-metadata.json
|   |   |   |   |   |--- types.d.ts
|   |   |   |   |   |--- util.d.ts
|   |   |   |   |--- test
|   |   |   |   |   |--- setup.d.ts
|   |   |   |   |   |--- util.d.ts
|   |   |   |   |--- app-check-public.d.ts
|   |   |   |   |--- app-check.d.ts
|   |   |   |   |--- index.cjs.js
|   |   |   |   |--- index.cjs.js.map
|   |   |   |--- package.json
|   |   |   |--- README.md
|   |   |--- app-check-compat
|   |   |   |--- dist
|   |   |   |   |--- esm
|   |   |   |   |   |--- src
|   |   |   |   |   |   |--- errors.d.ts
|   |   |   |   |   |   |--- index.d.ts
|   |   |   |   |   |   |--- service.d.ts
|   |   |   |   |   |   |--- service.test.d.ts
|   |   |   |   |   |--- index.esm.js
|   |   |   |   |   |--- index.esm.js.map
|   |   |   |   |   |--- package.json
|   |   |   |   |--- src
|   |   |   |   |   |--- errors.d.ts
|   |   |   |   |   |--- index.d.ts
|   |   |   |   |   |--- service.d.ts
|   |   |   |   |   |--- service.test.d.ts
|   |   |   |   |--- index.cjs.js
|   |   |   |   |--- index.cjs.js.map
|   |   |   |--- package.json
|   |   |   |--- README.md
|   |   |--- app-check-interop-types
|   |   |   |--- index.d.ts
|   |   |   |--- package.json
|   |   |   |--- README.md
|   |   |--- app-check-types
|   |   |   |--- index.d.ts
|   |   |   |--- package.json
|   |   |   |--- README.md
|   |   |--- app-compat
|   |   |   |--- dist
|   |   |   |   |--- esm
|   |   |   |   |   |--- src
|   |   |   |   |   |   |--- lite
|   |   |   |   |   |   |   |--- firebaseAppLite.d.ts
|   |   |   |   |   |   |   |--- firebaseNamespaceLite.d.ts
|   |   |   |   |   |   |--- errors.d.ts
|   |   |   |   |   |   |--- firebaseApp.d.ts
|   |   |   |   |   |   |--- firebaseNamespace.d.ts
|   |   |   |   |   |   |--- firebaseNamespaceCore.d.ts
|   |   |   |   |   |   |--- index.d.ts
|   |   |   |   |   |   |--- index.lite.d.ts
|   |   |   |   |   |   |--- logger.d.ts
|   |   |   |   |   |   |--- public-types.d.ts
|   |   |   |   |   |   |--- registerCoreComponents.d.ts
|   |   |   |   |   |   |--- types.d.ts
|   |   |   |   |   |--- test
|   |   |   |   |   |   |--- firebaseAppCompat.test.d.ts
|   |   |   |   |   |   |--- setup.d.ts
|   |   |   |   |   |   |--- util.d.ts
|   |   |   |   |   |--- index.esm.js
|   |   |   |   |   |--- index.esm.js.map
|   |   |   |   |   |--- package.json
|   |   |   |   |--- src
|   |   |   |   |   |--- lite
|   |   |   |   |   |   |--- firebaseAppLite.d.ts
|   |   |   |   |   |   |--- firebaseNamespaceLite.d.ts
|   |   |   |   |   |--- errors.d.ts
|   |   |   |   |   |--- firebaseApp.d.ts
|   |   |   |   |   |--- firebaseNamespace.d.ts
|   |   |   |   |   |--- firebaseNamespaceCore.d.ts
|   |   |   |   |   |--- index.d.ts
|   |   |   |   |   |--- index.lite.d.ts
|   |   |   |   |   |--- logger.d.ts
|   |   |   |   |   |--- public-types.d.ts
|   |   |   |   |   |--- registerCoreComponents.d.ts
|   |   |   |   |   |--- tsdoc-metadata.json
|   |   |   |   |   |--- types.d.ts
|   |   |   |   |--- test
|   |   |   |   |   |--- firebaseAppCompat.test.d.ts
|   |   |   |   |   |--- setup.d.ts
|   |   |   |   |   |--- util.d.ts
|   |   |   |   |--- app-compat-public.d.ts
|   |   |   |   |--- app-compat.d.ts
|   |   |   |   |--- index.cjs.js
|   |   |   |   |--- index.cjs.js.map
|   |   |   |   |--- index.lite.js
|   |   |   |   |--- index.lite.js.map
|   |   |   |--- package.json
|   |   |   |--- README.md
|   |   |--- app-types
|   |   |   |--- index.d.ts
|   |   |   |--- package.json
|   |   |   |--- private.d.ts
|   |   |   |--- README.md
|   |   |--- auth
|   |   |   |--- cordova
|   |   |   |   |--- package.json
|   |   |   |--- dist
|   |   |   |   |--- browser-cjs
|   |   |   |   |   |--- internal
|   |   |   |   |   |   |--- index.d.ts
|   |   |   |   |   |--- scripts
|   |   |   |   |   |   |--- run_node_tests.d.ts
|   |   |   |   |   |--- src
|   |   |   |   |   |   |--- api
|   |   |   |   |   |   |   |--- account_management
|   |   |   |   |   |   |   |   |--- account.d.ts
|   |   |   |   |   |   |   |   |--- email_and_password.d.ts
|   |   |   |   |   |   |   |   |--- mfa.d.ts
|   |   |   |   |   |   |   |   |--- profile.d.ts
|   |   |   |   |   |   |   |--- authentication
|   |   |   |   |   |   |   |   |--- create_auth_uri.d.ts
|   |   |   |   |   |   |   |   |--- custom_token.d.ts
|   |   |   |   |   |   |   |   |--- email_and_password.d.ts
|   |   |   |   |   |   |   |   |--- email_link.d.ts
|   |   |   |   |   |   |   |   |--- idp.d.ts
|   |   |   |   |   |   |   |   |--- mfa.d.ts
|   |   |   |   |   |   |   |   |--- recaptcha.d.ts
|   |   |   |   |   |   |   |   |--- sign_up.d.ts
|   |   |   |   |   |   |   |   |--- sms.d.ts
|   |   |   |   |   |   |   |   |--- token.d.ts
|   |   |   |   |   |   |   |--- password_policy
|   |   |   |   |   |   |   |   |--- get_password_policy.d.ts
|   |   |   |   |   |   |   |--- project_config
|   |   |   |   |   |   |   |   |--- get_project_config.d.ts
|   |   |   |   |   |   |   |--- errors.d.ts
|   |   |   |   |   |   |   |--- index.d.ts
|   |   |   |   |   |   |--- core
|   |   |   |   |   |   |   |--- auth
|   |   |   |   |   |   |   |   |--- auth_event_manager.d.ts
|   |   |   |   |   |   |   |   |--- auth_impl.d.ts
|   |   |   |   |   |   |   |   |--- emulator.d.ts
|   |   |   |   |   |   |   |   |--- firebase_internal.d.ts
|   |   |   |   |   |   |   |   |--- initialize.d.ts
|   |   |   |   |   |   |   |   |--- middleware.d.ts
|   |   |   |   |   |   |   |   |--- password_policy_impl.d.ts
|   |   |   |   |   |   |   |   |--- register.d.ts
|   |   |   |   |   |   |   |--- credentials
|   |   |   |   |   |   |   |   |--- auth_credential.d.ts
|   |   |   |   |   |   |   |   |--- email.d.ts
|   |   |   |   |   |   |   |   |--- index.d.ts
|   |   |   |   |   |   |   |   |--- oauth.d.ts
|   |   |   |   |   |   |   |   |--- phone.d.ts
|   |   |   |   |   |   |   |   |--- saml.d.ts
|   |   |   |   |   |   |   |--- persistence
|   |   |   |   |   |   |   |   |--- index.d.ts
|   |   |   |   |   |   |   |   |--- in_memory.d.ts
|   |   |   |   |   |   |   |   |--- persistence_user_manager.d.ts
|   |   |   |   |   |   |   |--- providers
|   |   |   |   |   |   |   |   |--- email.d.ts
|   |   |   |   |   |   |   |   |--- facebook.d.ts
|   |   |   |   |   |   |   |   |--- federated.d.ts
|   |   |   |   |   |   |   |   |--- github.d.ts
|   |   |   |   |   |   |   |   |--- google.d.ts
|   |   |   |   |   |   |   |   |--- oauth.d.ts
|   |   |   |   |   |   |   |   |--- saml.d.ts
|   |   |   |   |   |   |   |   |--- twitter.d.ts
|   |   |   |   |   |   |   |--- strategies
|   |   |   |   |   |   |   |   |--- abstract_popup_redirect_operation.d.ts
|   |   |   |   |   |   |   |   |--- action_code_settings.d.ts
|   |   |   |   |   |   |   |   |--- anonymous.d.ts
|   |   |   |   |   |   |   |   |--- credential.d.ts
|   |   |   |   |   |   |   |   |--- custom_token.d.ts
|   |   |   |   |   |   |   |   |--- email.d.ts
|   |   |   |   |   |   |   |   |--- email_and_password.d.ts
|   |   |   |   |   |   |   |   |--- email_link.d.ts
|   |   |   |   |   |   |   |   |--- idp.d.ts
|   |   |   |   |   |   |   |   |--- redirect.d.ts
|   |   |   |   |   |   |   |--- user
|   |   |   |   |   |   |   |   |--- account_info.d.ts
|   |   |   |   |   |   |   |   |--- additional_user_info.d.ts
|   |   |   |   |   |   |   |   |--- id_token_result.d.ts
|   |   |   |   |   |   |   |   |--- invalidation.d.ts
|   |   |   |   |   |   |   |   |--- link_unlink.d.ts
|   |   |   |   |   |   |   |   |--- proactive_refresh.d.ts
|   |   |   |   |   |   |   |   |--- reauthenticate.d.ts
|   |   |   |   |   |   |   |   |--- reload.d.ts
|   |   |   |   |   |   |   |   |--- token_manager.d.ts
|   |   |   |   |   |   |   |   |--- user_credential_impl.d.ts
|   |   |   |   |   |   |   |   |--- user_impl.d.ts
|   |   |   |   |   |   |   |   |--- user_metadata.d.ts
|   |   |   |   |   |   |   |--- util
|   |   |   |   |   |   |   |   |--- assert.d.ts
|   |   |   |   |   |   |   |   |--- browser.d.ts
|   |   |   |   |   |   |   |   |--- delay.d.ts
|   |   |   |   |   |   |   |   |--- emulator.d.ts
|   |   |   |   |   |   |   |   |--- event_id.d.ts
|   |   |   |   |   |   |   |   |--- fetch_provider.d.ts
|   |   |   |   |   |   |   |   |--- handler.d.ts
|   |   |   |   |   |   |   |   |--- instantiator.d.ts
|   |   |   |   |   |   |   |   |--- location.d.ts
|   |   |   |   |   |   |   |   |--- log.d.ts
|   |   |   |   |   |   |   |   |--- navigator.d.ts
|   |   |   |   |   |   |   |   |--- providers.d.ts
|   |   |   |   |   |   |   |   |--- resolver.d.ts
|   |   |   |   |   |   |   |   |--- time.d.ts
|   |   |   |   |   |   |   |   |--- validate_origin.d.ts
|   |   |   |   |   |   |   |   |--- version.d.ts
|   |   |   |   |   |   |   |--- action_code_url.d.ts
|   |   |   |   |   |   |   |--- errors.d.ts
|   |   |   |   |   |   |   |--- index.d.ts
|   |   |   |   |   |   |--- mfa
|   |   |   |   |   |   |   |--- assertions
|   |   |   |   |   |   |   |   |--- totp.d.ts
|   |   |   |   |   |   |   |--- index.d.ts
|   |   |   |   |   |   |   |--- mfa_assertion.d.ts
|   |   |   |   |   |   |   |--- mfa_error.d.ts
|   |   |   |   |   |   |   |--- mfa_info.d.ts
|   |   |   |   |   |   |   |--- mfa_resolver.d.ts
|   |   |   |   |   |   |   |--- mfa_session.d.ts
|   |   |   |   |   |   |   |--- mfa_user.d.ts
|   |   |   |   |   |   |--- model
|   |   |   |   |   |   |   |--- application_verifier.d.ts
|   |   |   |   |   |   |   |--- auth.d.ts
|   |   |   |   |   |   |   |--- enums.d.ts
|   |   |   |   |   |   |   |--- enum_maps.d.ts
|   |   |   |   |   |   |   |--- id_token.d.ts
|   |   |   |   |   |   |   |--- password_policy.d.ts
|   |   |   |   |   |   |   |--- popup_redirect.d.ts
|   |   |   |   |   |   |   |--- public_types.d.ts
|   |   |   |   |   |   |   |--- user.d.ts
|   |   |   |   |   |   |--- platform_browser
|   |   |   |   |   |   |   |--- iframe
|   |   |   |   |   |   |   |   |--- gapi.d.ts
|   |   |   |   |   |   |   |   |--- gapi.iframes.d.ts
|   |   |   |   |   |   |   |   |--- iframe.d.ts
|   |   |   |   |   |   |   |--- messagechannel
|   |   |   |   |   |   |   |   |--- index.d.ts
|   |   |   |   |   |   |   |   |--- promise.d.ts
|   |   |   |   |   |   |   |   |--- receiver.d.ts
|   |   |   |   |   |   |   |   |--- sender.d.ts
|   |   |   |   |   |   |   |--- mfa
|   |   |   |   |   |   |   |   |--- assertions
|   |   |   |   |   |   |   |   |   |--- phone.d.ts
|   |   |   |   |   |   |   |--- persistence
|   |   |   |   |   |   |   |   |--- browser.d.ts
|   |   |   |   |   |   |   |   |--- cookie_storage.d.ts
|   |   |   |   |   |   |   |   |--- indexed_db.d.ts
|   |   |   |   |   |   |   |   |--- local_storage.d.ts
|   |   |   |   |   |   |   |   |--- session_storage.d.ts
|   |   |   |   |   |   |   |--- providers
|   |   |   |   |   |   |   |   |--- phone.d.ts
|   |   |   |   |   |   |   |--- recaptcha
|   |   |   |   |   |   |   |   |--- recaptcha.d.ts
|   |   |   |   |   |   |   |   |--- recaptcha_enterprise_verifier.d.ts
|   |   |   |   |   |   |   |   |--- recaptcha_loader.d.ts
|   |   |   |   |   |   |   |   |--- recaptcha_mock.d.ts
|   |   |   |   |   |   |   |   |--- recaptcha_verifier.d.ts
|   |   |   |   |   |   |   |--- strategies
|   |   |   |   |   |   |   |   |--- phone.d.ts
|   |   |   |   |   |   |   |   |--- popup.d.ts
|   |   |   |   |   |   |   |   |--- redirect.d.ts
|   |   |   |   |   |   |   |--- util
|   |   |   |   |   |   |   |   |--- popup.d.ts
|   |   |   |   |   |   |   |   |--- worker.d.ts
|   |   |   |   |   |   |   |--- auth_window.d.ts
|   |   |   |   |   |   |   |--- index.d.ts
|   |   |   |   |   |   |   |--- load_js.d.ts
|   |   |   |   |   |   |   |--- popup_redirect.d.ts
|   |   |   |   |   |   |--- platform_cordova
|   |   |   |   |   |   |   |--- popup_redirect
|   |   |   |   |   |   |   |   |--- events.d.ts
|   |   |   |   |   |   |   |   |--- popup_redirect.d.ts
|   |   |   |   |   |   |   |   |--- utils.d.ts
|   |   |   |   |   |   |   |--- strategies
|   |   |   |   |   |   |   |   |--- redirect.d.ts
|   |   |   |   |   |   |   |--- plugins.d.ts
|   |   |   |   |   |   |--- platform_node
|   |   |   |   |   |   |   |--- index.d.ts
|   |   |   |   |   |   |--- platform_react_native
|   |   |   |   |   |   |   |--- persistence
|   |   |   |   |   |   |   |   |--- react_native.d.ts
|   |   |   |   |   |   |--- index.d.ts
|   |   |   |   |   |--- test
|   |   |   |   |   |   |--- helpers
|   |   |   |   |   |   |   |--- api
|   |   |   |   |   |   |   |   |--- helper.d.ts
|   |   |   |   |   |   |   |--- integration
|   |   |   |   |   |   |   |   |--- emulator_rest_helpers.d.ts
|   |   |   |   |   |   |   |   |--- helpers.d.ts
|   |   |   |   |   |   |   |   |--- settings.d.ts
|   |   |   |   |   |   |   |--- delay.d.ts
|   |   |   |   |   |   |   |--- erroring_unavailable_persistence.d.ts
|   |   |   |   |   |   |   |--- fake_service_worker.d.ts
|   |   |   |   |   |   |   |--- id_token_response.d.ts
|   |   |   |   |   |   |   |--- iframe_event.d.ts
|   |   |   |   |   |   |   |--- jwt.d.ts
|   |   |   |   |   |   |   |--- mock_auth.d.ts
|   |   |   |   |   |   |   |--- mock_auth_credential.d.ts
|   |   |   |   |   |   |   |--- mock_fetch.d.ts
|   |   |   |   |   |   |   |--- mock_popup_redirect_resolver.d.ts
|   |   |   |   |   |   |   |--- redirect_persistence.d.ts
|   |   |   |   |   |   |   |--- timeout_stub.d.ts
|   |   |   |   |   |   |--- integration
|   |   |   |   |   |   |   |--- flows
|   |   |   |   |   |   |   |   |--- middleware_test_generator.d.ts
|   |   |   |   |   |   |   |--- webdriver
|   |   |   |   |   |   |   |   |--- util
|   |   |   |   |   |   |   |   |   |--- auth_driver.d.ts
|   |   |   |   |   |   |   |   |   |--- functions.d.ts
|   |   |   |   |   |   |   |   |   |--- idp_page.d.ts
|   |   |   |   |   |   |   |   |   |--- js_load_condition.d.ts
|   |   |   |   |   |   |   |   |   |--- test_runner.d.ts
|   |   |   |   |   |   |   |   |   |--- test_server.d.ts
|   |   |   |   |   |   |   |   |   |--- ui_page.d.ts
|   |   |   |   |   |--- index-ac6fb6b2.js
|   |   |   |   |   |--- index-ac6fb6b2.js.map
|   |   |   |   |   |--- index.cordova.d.ts
|   |   |   |   |   |--- index.d.ts
|   |   |   |   |   |--- index.doc.d.ts
|   |   |   |   |   |--- index.js
|   |   |   |   |   |--- index.js.map
|   |   |   |   |   |--- index.node.d.ts
|   |   |   |   |   |--- index.rn.d.ts
|   |   |   |   |   |--- index.shared.d.ts
|   |   |   |   |   |--- index.web-extension.d.ts
|   |   |   |   |   |--- index.webworker.d.ts
|   |   |   |   |   |--- internal.js
|   |   |   |   |   |--- internal.js.map
|   |   |   |   |--- cordova
|   |   |   |   |   |--- internal
|   |   |   |   |   |   |--- index.d.ts
|   |   |   |   |   |--- scripts
|   |   |   |   |   |   |--- run_node_tests.d.ts
|   |   |   |   |   |--- src
|   |   |   |   |   |   |--- api
|   |   |   |   |   |   |   |--- account_management
|   |   |   |   |   |   |   |   |--- account.d.ts
|   |   |   |   |   |   |   |   |--- email_and_password.d.ts
|   |   |   |   |   |   |   |   |--- mfa.d.ts
|   |   |   |   |   |   |   |   |--- profile.d.ts
|   |   |   |   |   |   |   |--- authentication
|   |   |   |   |   |   |   |   |--- create_auth_uri.d.ts
|   |   |   |   |   |   |   |   |--- custom_token.d.ts
|   |   |   |   |   |   |   |   |--- email_and_password.d.ts
|   |   |   |   |   |   |   |   |--- email_link.d.ts
|   |   |   |   |   |   |   |   |--- idp.d.ts
|   |   |   |   |   |   |   |   |--- mfa.d.ts
|   |   |   |   |   |   |   |   |--- recaptcha.d.ts
|   |   |   |   |   |   |   |   |--- sign_up.d.ts
|   |   |   |   |   |   |   |   |--- sms.d.ts
|   |   |   |   |   |   |   |   |--- token.d.ts
|   |   |   |   |   |   |   |--- password_policy
|   |   |   |   |   |   |   |   |--- get_password_policy.d.ts
|   |   |   |   |   |   |   |--- project_config
|   |   |   |   |   |   |   |   |--- get_project_config.d.ts
|   |   |   |   |   |   |   |--- errors.d.ts
|   |   |   |   |   |   |   |--- index.d.ts
|   |   |   |   |   |   |--- core
|   |   |   |   |   |   |   |--- auth
|   |   |   |   |   |   |   |   |--- auth_event_manager.d.ts
|   |   |   |   |   |   |   |   |--- auth_impl.d.ts
|   |   |   |   |   |   |   |   |--- emulator.d.ts
|   |   |   |   |   |   |   |   |--- firebase_internal.d.ts
|   |   |   |   |   |   |   |   |--- initialize.d.ts
|   |   |   |   |   |   |   |   |--- middleware.d.ts
|   |   |   |   |   |   |   |   |--- password_policy_impl.d.ts
|   |   |   |   |   |   |   |   |--- register.d.ts
|   |   |   |   |   |   |   |--- credentials
|   |   |   |   |   |   |   |   |--- auth_credential.d.ts
|   |   |   |   |   |   |   |   |--- email.d.ts
|   |   |   |   |   |   |   |   |--- index.d.ts
|   |   |   |   |   |   |   |   |--- oauth.d.ts
|   |   |   |   |   |   |   |   |--- phone.d.ts
|   |   |   |   |   |   |   |   |--- saml.d.ts
|   |   |   |   |   |   |   |--- persistence
|   |   |   |   |   |   |   |   |--- index.d.ts
|   |   |   |   |   |   |   |   |--- in_memory.d.ts
|   |   |   |   |   |   |   |   |--- persistence_user_manager.d.ts
|   |   |   |   |   |   |   |--- providers
|   |   |   |   |   |   |   |   |--- email.d.ts
|   |   |   |   |   |   |   |   |--- facebook.d.ts
|   |   |   |   |   |   |   |   |--- federated.d.ts
|   |   |   |   |   |   |   |   |--- github.d.ts
|   |   |   |   |   |   |   |   |--- google.d.ts
|   |   |   |   |   |   |   |   |--- oauth.d.ts
|   |   |   |   |   |   |   |   |--- saml.d.ts
|   |   |   |   |   |   |   |   |--- twitter.d.ts
|   |   |   |   |   |   |   |--- strategies
|   |   |   |   |   |   |   |   |--- abstract_popup_redirect_operation.d.ts
|   |   |   |   |   |   |   |   |--- action_code_settings.d.ts
|   |   |   |   |   |   |   |   |--- anonymous.d.ts
|   |   |   |   |   |   |   |   |--- credential.d.ts
|   |   |   |   |   |   |   |   |--- custom_token.d.ts
|   |   |   |   |   |   |   |   |--- email.d.ts
|   |   |   |   |   |   |   |   |--- email_and_password.d.ts
|   |   |   |   |   |   |   |   |--- email_link.d.ts
|   |   |   |   |   |   |   |   |--- idp.d.ts
|   |   |   |   |   |   |   |   |--- redirect.d.ts
|   |   |   |   |   |   |   |--- user
|   |   |   |   |   |   |   |   |--- account_info.d.ts
|   |   |   |   |   |   |   |   |--- additional_user_info.d.ts
|   |   |   |   |   |   |   |   |--- id_token_result.d.ts
|   |   |   |   |   |   |   |   |--- invalidation.d.ts
|   |   |   |   |   |   |   |   |--- link_unlink.d.ts
|   |   |   |   |   |   |   |   |--- proactive_refresh.d.ts
|   |   |   |   |   |   |   |   |--- reauthenticate.d.ts
|   |   |   |   |   |   |   |   |--- reload.d.ts
|   |   |   |   |   |   |   |   |--- token_manager.d.ts
|   |   |   |   |   |   |   |   |--- user_credential_impl.d.ts
|   |   |   |   |   |   |   |   |--- user_impl.d.ts
|   |   |   |   |   |   |   |   |--- user_metadata.d.ts
|   |   |   |   |   |   |   |--- util
|   |   |   |   |   |   |   |   |--- assert.d.ts
|   |   |   |   |   |   |   |   |--- browser.d.ts
|   |   |   |   |   |   |   |   |--- delay.d.ts
|   |   |   |   |   |   |   |   |--- emulator.d.ts
|   |   |   |   |   |   |   |   |--- event_id.d.ts
|   |   |   |   |   |   |   |   |--- fetch_provider.d.ts
|   |   |   |   |   |   |   |   |--- handler.d.ts
|   |   |   |   |   |   |   |   |--- instantiator.d.ts
|   |   |   |   |   |   |   |   |--- location.d.ts
|   |   |   |   |   |   |   |   |--- log.d.ts
|   |   |   |   |   |   |   |   |--- navigator.d.ts
|   |   |   |   |   |   |   |   |--- providers.d.ts
|   |   |   |   |   |   |   |   |--- resolver.d.ts
|   |   |   |   |   |   |   |   |--- time.d.ts
|   |   |   |   |   |   |   |   |--- validate_origin.d.ts
|   |   |   |   |   |   |   |   |--- version.d.ts
|   |   |   |   |   |   |   |--- action_code_url.d.ts
|   |   |   |   |   |   |   |--- errors.d.ts
|   |   |   |   |   |   |   |--- index.d.ts
|   |   |   |   |   |   |--- mfa
|   |   |   |   |   |   |   |--- assertions
|   |   |   |   |   |   |   |   |--- totp.d.ts
|   |   |   |   |   |   |   |--- index.d.ts
|   |   |   |   |   |   |   |--- mfa_assertion.d.ts
|   |   |   |   |   |   |   |--- mfa_error.d.ts
|   |   |   |   |   |   |   |--- mfa_info.d.ts
|   |   |   |   |   |   |   |--- mfa_resolver.d.ts
|   |   |   |   |   |   |   |--- mfa_session.d.ts
|   |   |   |   |   |   |   |--- mfa_user.d.ts
|   |   |   |   |   |   |--- model
|   |   |   |   |   |   |   |--- application_verifier.d.ts
|   |   |   |   |   |   |   |--- auth.d.ts
|   |   |   |   |   |   |   |--- enums.d.ts
|   |   |   |   |   |   |   |--- enum_maps.d.ts
|   |   |   |   |   |   |   |--- id_token.d.ts
|   |   |   |   |   |   |   |--- password_policy.d.ts
|   |   |   |   |   |   |   |--- popup_redirect.d.ts
|   |   |   |   |   |   |   |--- public_types.d.ts
|   |   |   |   |   |   |   |--- user.d.ts
|   |   |   |   |   |   |--- platform_browser
|   |   |   |   |   |   |   |--- iframe
|   |   |   |   |   |   |   |   |--- gapi.d.ts
|   |   |   |   |   |   |   |   |--- gapi.iframes.d.ts
|   |   |   |   |   |   |   |   |--- iframe.d.ts
|   |   |   |   |   |   |   |--- messagechannel
|   |   |   |   |   |   |   |   |--- index.d.ts
|   |   |   |   |   |   |   |   |--- promise.d.ts
|   |   |   |   |   |   |   |   |--- receiver.d.ts
|   |   |   |   |   |   |   |   |--- sender.d.ts
|   |   |   |   |   |   |   |--- mfa
|   |   |   |   |   |   |   |   |--- assertions
|   |   |   |   |   |   |   |   |   |--- phone.d.ts
|   |   |   |   |   |   |   |--- persistence
|   |   |   |   |   |   |   |   |--- browser.d.ts
|   |   |   |   |   |   |   |   |--- cookie_storage.d.ts
|   |   |   |   |   |   |   |   |--- indexed_db.d.ts
|   |   |   |   |   |   |   |   |--- local_storage.d.ts
|   |   |   |   |   |   |   |   |--- session_storage.d.ts
|   |   |   |   |   |   |   |--- providers
|   |   |   |   |   |   |   |   |--- phone.d.ts
|   |   |   |   |   |   |   |--- recaptcha
|   |   |   |   |   |   |   |   |--- recaptcha.d.ts
|   |   |   |   |   |   |   |   |--- recaptcha_enterprise_verifier.d.ts
|   |   |   |   |   |   |   |   |--- recaptcha_loader.d.ts
|   |   |   |   |   |   |   |   |--- recaptcha_mock.d.ts
|   |   |   |   |   |   |   |   |--- recaptcha_verifier.d.ts
|   |   |   |   |   |   |   |--- strategies
|   |   |   |   |   |   |   |   |--- phone.d.ts
|   |   |   |   |   |   |   |   |--- popup.d.ts
|   |   |   |   |   |   |   |   |--- redirect.d.ts
|   |   |   |   |   |   |   |--- util
|   |   |   |   |   |   |   |   |--- popup.d.ts
|   |   |   |   |   |   |   |   |--- worker.d.ts
|   |   |   |   |   |   |   |--- auth_window.d.ts
|   |   |   |   |   |   |   |--- index.d.ts
|   |   |   |   |   |   |   |--- load_js.d.ts
|   |   |   |   |   |   |   |--- popup_redirect.d.ts
|   |   |   |   |   |   |--- platform_cordova
|   |   |   |   |   |   |   |--- popup_redirect
|   |   |   |   |   |   |   |   |--- events.d.ts
|   |   |   |   |   |   |   |   |--- popup_redirect.d.ts
|   |   |   |   |   |   |   |   |--- utils.d.ts
|   |   |   |   |   |   |   |--- strategies
|   |   |   |   |   |   |   |   |--- redirect.d.ts
|   |   |   |   |   |   |   |--- plugins.d.ts
|   |   |   |   |   |   |--- platform_node
|   |   |   |   |   |   |   |--- index.d.ts
|   |   |   |   |   |   |--- platform_react_native
|   |   |   |   |   |   |   |--- persistence
|   |   |   |   |   |   |   |   |--- react_native.d.ts
|   |   |   |   |   |   |--- index.d.ts
|   |   |   |   |   |--- test
|   |   |   |   |   |   |--- helpers
|   |   |   |   |   |   |   |--- api
|   |   |   |   |   |   |   |   |--- helper.d.ts
|   |   |   |   |   |   |   |--- integration
|   |   |   |   |   |   |   |   |--- emulator_rest_helpers.d.ts
|   |   |   |   |   |   |   |   |--- helpers.d.ts
|   |   |   |   |   |   |   |   |--- settings.d.ts
|   |   |   |   |   |   |   |--- delay.d.ts
|   |   |   |   |   |   |   |--- erroring_unavailable_persistence.d.ts
|   |   |   |   |   |   |   |--- fake_service_worker.d.ts
|   |   |   |   |   |   |   |--- id_token_response.d.ts
|   |   |   |   |   |   |   |--- iframe_event.d.ts
|   |   |   |   |   |   |   |--- jwt.d.ts
|   |   |   |   |   |   |   |--- mock_auth.d.ts
|   |   |   |   |   |   |   |--- mock_auth_credential.d.ts
|   |   |   |   |   |   |   |--- mock_fetch.d.ts
|   |   |   |   |   |   |   |--- mock_popup_redirect_resolver.d.ts
|   |   |   |   |   |   |   |--- redirect_persistence.d.ts
|   |   |   |   |   |   |   |--- timeout_stub.d.ts
|   |   |   |   |   |   |--- integration
|   |   |   |   |   |   |   |--- flows
|   |   |   |   |   |   |   |   |--- middleware_test_generator.d.ts
|   |   |   |   |   |   |   |--- webdriver
|   |   |   |   |   |   |   |   |--- util
|   |   |   |   |   |   |   |   |   |--- auth_driver.d.ts
|   |   |   |   |   |   |   |   |   |--- functions.d.ts
|   |   |   |   |   |   |   |   |   |--- idp_page.d.ts
|   |   |   |   |   |   |   |   |   |--- js_load_condition.d.ts
|   |   |   |   |   |   |   |   |   |--- test_runner.d.ts
|   |   |   |   |   |   |   |   |   |--- test_server.d.ts
|   |   |   |   |   |   |   |   |   |--- ui_page.d.ts
|   |   |   |   |   |--- auth-cordova-public.d.ts
|   |   |   |   |   |--- auth-cordova.d.ts
|   |   |   |   |   |--- index.cordova.d.ts
|   |   |   |   |   |--- index.d.ts
|   |   |   |   |   |--- index.doc.d.ts
|   |   |   |   |   |--- index.js
|   |   |   |   |   |--- index.js.map
|   |   |   |   |   |--- index.node.d.ts
|   |   |   |   |   |--- index.rn.d.ts
|   |   |   |   |   |--- index.shared.d.ts
|   |   |   |   |   |--- index.web-extension.d.ts
|   |   |   |   |   |--- index.webworker.d.ts
|   |   |   |   |   |--- internal.js
|   |   |   |   |   |--- internal.js.map
|   |   |   |   |   |--- popup_redirect-29c7321e.js
|   |   |   |   |   |--- popup_redirect-29c7321e.js.map
|   |   |   |   |   |--- tsdoc-metadata.json
|   |   |   |   |--- esm
|   |   |   |   |   |--- internal
|   |   |   |   |   |   |--- index.d.ts
|   |   |   |   |   |--- scripts
|   |   |   |   |   |   |--- run_node_tests.d.ts
|   |   |   |   |   |--- src
|   |   |   |   |   |   |--- api
|   |   |   |   |   |   |   |--- account_management
|   |   |   |   |   |   |   |   |--- account.d.ts
|   |   |   |   |   |   |   |   |--- email_and_password.d.ts
|   |   |   |   |   |   |   |   |--- mfa.d.ts
|   |   |   |   |   |   |   |   |--- profile.d.ts
|   |   |   |   |   |   |   |--- authentication
|   |   |   |   |   |   |   |   |--- create_auth_uri.d.ts
|   |   |   |   |   |   |   |   |--- custom_token.d.ts
|   |   |   |   |   |   |   |   |--- email_and_password.d.ts
|   |   |   |   |   |   |   |   |--- email_link.d.ts
|   |   |   |   |   |   |   |   |--- idp.d.ts
|   |   |   |   |   |   |   |   |--- mfa.d.ts
|   |   |   |   |   |   |   |   |--- recaptcha.d.ts
|   |   |   |   |   |   |   |   |--- sign_up.d.ts
|   |   |   |   |   |   |   |   |--- sms.d.ts
|   |   |   |   |   |   |   |   |--- token.d.ts
|   |   |   |   |   |   |   |--- password_policy
|   |   |   |   |   |   |   |   |--- get_password_policy.d.ts
|   |   |   |   |   |   |   |--- project_config
|   |   |   |   |   |   |   |   |--- get_project_config.d.ts
|   |   |   |   |   |   |   |--- errors.d.ts
|   |   |   |   |   |   |   |--- index.d.ts
|   |   |   |   |   |   |--- core
|   |   |   |   |   |   |   |--- auth
|   |   |   |   |   |   |   |   |--- auth_event_manager.d.ts
|   |   |   |   |   |   |   |   |--- auth_impl.d.ts
|   |   |   |   |   |   |   |   |--- emulator.d.ts
|   |   |   |   |   |   |   |   |--- firebase_internal.d.ts
|   |   |   |   |   |   |   |   |--- initialize.d.ts
|   |   |   |   |   |   |   |   |--- middleware.d.ts
|   |   |   |   |   |   |   |   |--- password_policy_impl.d.ts
|   |   |   |   |   |   |   |   |--- register.d.ts
|   |   |   |   |   |   |   |--- credentials
|   |   |   |   |   |   |   |   |--- auth_credential.d.ts
|   |   |   |   |   |   |   |   |--- email.d.ts
|   |   |   |   |   |   |   |   |--- index.d.ts
|   |   |   |   |   |   |   |   |--- oauth.d.ts
|   |   |   |   |   |   |   |   |--- phone.d.ts
|   |   |   |   |   |   |   |   |--- saml.d.ts
|   |   |   |   |   |   |   |--- persistence
|   |   |   |   |   |   |   |   |--- index.d.ts
|   |   |   |   |   |   |   |   |--- in_memory.d.ts
|   |   |   |   |   |   |   |   |--- persistence_user_manager.d.ts
|   |   |   |   |   |   |   |--- providers
|   |   |   |   |   |   |   |   |--- email.d.ts
|   |   |   |   |   |   |   |   |--- facebook.d.ts
|   |   |   |   |   |   |   |   |--- federated.d.ts
|   |   |   |   |   |   |   |   |--- github.d.ts
|   |   |   |   |   |   |   |   |--- google.d.ts
|   |   |   |   |   |   |   |   |--- oauth.d.ts
|   |   |   |   |   |   |   |   |--- saml.d.ts
|   |   |   |   |   |   |   |   |--- twitter.d.ts
|   |   |   |   |   |   |   |--- strategies
|   |   |   |   |   |   |   |   |--- abstract_popup_redirect_operation.d.ts
|   |   |   |   |   |   |   |   |--- action_code_settings.d.ts
|   |   |   |   |   |   |   |   |--- anonymous.d.ts
|   |   |   |   |   |   |   |   |--- credential.d.ts
|   |   |   |   |   |   |   |   |--- custom_token.d.ts
|   |   |   |   |   |   |   |   |--- email.d.ts
|   |   |   |   |   |   |   |   |--- email_and_password.d.ts
|   |   |   |   |   |   |   |   |--- email_link.d.ts
|   |   |   |   |   |   |   |   |--- idp.d.ts
|   |   |   |   |   |   |   |   |--- redirect.d.ts
|   |   |   |   |   |   |   |--- user
|   |   |   |   |   |   |   |   |--- account_info.d.ts
|   |   |   |   |   |   |   |   |--- additional_user_info.d.ts
|   |   |   |   |   |   |   |   |--- id_token_result.d.ts
|   |   |   |   |   |   |   |   |--- invalidation.d.ts
|   |   |   |   |   |   |   |   |--- link_unlink.d.ts
|   |   |   |   |   |   |   |   |--- proactive_refresh.d.ts
|   |   |   |   |   |   |   |   |--- reauthenticate.d.ts
|   |   |   |   |   |   |   |   |--- reload.d.ts
|   |   |   |   |   |   |   |   |--- token_manager.d.ts
|   |   |   |   |   |   |   |   |--- user_credential_impl.d.ts
|   |   |   |   |   |   |   |   |--- user_impl.d.ts
|   |   |   |   |   |   |   |   |--- user_metadata.d.ts
|   |   |   |   |   |   |   |--- util
|   |   |   |   |   |   |   |   |--- assert.d.ts
|   |   |   |   |   |   |   |   |--- browser.d.ts
|   |   |   |   |   |   |   |   |--- delay.d.ts
|   |   |   |   |   |   |   |   |--- emulator.d.ts
|   |   |   |   |   |   |   |   |--- event_id.d.ts
|   |   |   |   |   |   |   |   |--- fetch_provider.d.ts
|   |   |   |   |   |   |   |   |--- handler.d.ts
|   |   |   |   |   |   |   |   |--- instantiator.d.ts
|   |   |   |   |   |   |   |   |--- location.d.ts
|   |   |   |   |   |   |   |   |--- log.d.ts
|   |   |   |   |   |   |   |   |--- navigator.d.ts
|   |   |   |   |   |   |   |   |--- providers.d.ts
|   |   |   |   |   |   |   |   |--- resolver.d.ts
|   |   |   |   |   |   |   |   |--- time.d.ts
|   |   |   |   |   |   |   |   |--- validate_origin.d.ts
|   |   |   |   |   |   |   |   |--- version.d.ts
|   |   |   |   |   |   |   |--- action_code_url.d.ts
|   |   |   |   |   |   |   |--- errors.d.ts
|   |   |   |   |   |   |   |--- index.d.ts
|   |   |   |   |   |   |--- mfa
|   |   |   |   |   |   |   |--- assertions
|   |   |   |   |   |   |   |   |--- totp.d.ts
|   |   |   |   |   |   |   |--- index.d.ts
|   |   |   |   |   |   |   |--- mfa_assertion.d.ts
|   |   |   |   |   |   |   |--- mfa_error.d.ts
|   |   |   |   |   |   |   |--- mfa_info.d.ts
|   |   |   |   |   |   |   |--- mfa_resolver.d.ts
|   |   |   |   |   |   |   |--- mfa_session.d.ts
|   |   |   |   |   |   |   |--- mfa_user.d.ts
|   |   |   |   |   |   |--- model
|   |   |   |   |   |   |   |--- application_verifier.d.ts
|   |   |   |   |   |   |   |--- auth.d.ts
|   |   |   |   |   |   |   |--- enums.d.ts
|   |   |   |   |   |   |   |--- enum_maps.d.ts
|   |   |   |   |   |   |   |--- id_token.d.ts
|   |   |   |   |   |   |   |--- password_policy.d.ts
|   |   |   |   |   |   |   |--- popup_redirect.d.ts
|   |   |   |   |   |   |   |--- public_types.d.ts
|   |   |   |   |   |   |   |--- user.d.ts
|   |   |   |   |   |   |--- platform_browser
|   |   |   |   |   |   |   |--- iframe
|   |   |   |   |   |   |   |   |--- gapi.d.ts
|   |   |   |   |   |   |   |   |--- gapi.iframes.d.ts
|   |   |   |   |   |   |   |   |--- iframe.d.ts
|   |   |   |   |   |   |   |--- messagechannel
|   |   |   |   |   |   |   |   |--- index.d.ts
|   |   |   |   |   |   |   |   |--- promise.d.ts
|   |   |   |   |   |   |   |   |--- receiver.d.ts
|   |   |   |   |   |   |   |   |--- sender.d.ts
|   |   |   |   |   |   |   |--- mfa
|   |   |   |   |   |   |   |   |--- assertions
|   |   |   |   |   |   |   |   |   |--- phone.d.ts
|   |   |   |   |   |   |   |--- persistence
|   |   |   |   |   |   |   |   |--- browser.d.ts
|   |   |   |   |   |   |   |   |--- cookie_storage.d.ts
|   |   |   |   |   |   |   |   |--- indexed_db.d.ts
|   |   |   |   |   |   |   |   |--- local_storage.d.ts
|   |   |   |   |   |   |   |   |--- session_storage.d.ts
|   |   |   |   |   |   |   |--- providers
|   |   |   |   |   |   |   |   |--- phone.d.ts
|   |   |   |   |   |   |   |--- recaptcha
|   |   |   |   |   |   |   |   |--- recaptcha.d.ts
|   |   |   |   |   |   |   |   |--- recaptcha_enterprise_verifier.d.ts
|   |   |   |   |   |   |   |   |--- recaptcha_loader.d.ts
|   |   |   |   |   |   |   |   |--- recaptcha_mock.d.ts
|   |   |   |   |   |   |   |   |--- recaptcha_verifier.d.ts
|   |   |   |   |   |   |   |--- strategies
|   |   |   |   |   |   |   |   |--- phone.d.ts
|   |   |   |   |   |   |   |   |--- popup.d.ts
|   |   |   |   |   |   |   |   |--- redirect.d.ts
|   |   |   |   |   |   |   |--- util
|   |   |   |   |   |   |   |   |--- popup.d.ts
|   |   |   |   |   |   |   |   |--- worker.d.ts
|   |   |   |   |   |   |   |--- auth_window.d.ts
|   |   |   |   |   |   |   |--- index.d.ts
|   |   |   |   |   |   |   |--- load_js.d.ts
|   |   |   |   |   |   |   |--- popup_redirect.d.ts
|   |   |   |   |   |   |--- platform_cordova
|   |   |   |   |   |   |   |--- popup_redirect
|   |   |   |   |   |   |   |   |--- events.d.ts
|   |   |   |   |   |   |   |   |--- popup_redirect.d.ts
|   |   |   |   |   |   |   |   |--- utils.d.ts
|   |   |   |   |   |   |   |--- strategies
|   |   |   |   |   |   |   |   |--- redirect.d.ts
|   |   |   |   |   |   |   |--- plugins.d.ts
|   |   |   |   |   |   |--- platform_node
|   |   |   |   |   |   |   |--- index.d.ts
|   |   |   |   |   |   |--- platform_react_native
|   |   |   |   |   |   |   |--- persistence
|   |   |   |   |   |   |   |   |--- react_native.d.ts
|   |   |   |   |   |   |--- index.d.ts
|   |   |   |   |   |--- test
|   |   |   |   |   |   |--- helpers
|   |   |   |   |   |   |   |--- api
|   |   |   |   |   |   |   |   |--- helper.d.ts
|   |   |   |   |   |   |   |--- integration
|   |   |   |   |   |   |   |   |--- emulator_rest_helpers.d.ts
|   |   |   |   |   |   |   |   |--- helpers.d.ts
|   |   |   |   |   |   |   |   |--- settings.d.ts
|   |   |   |   |   |   |   |--- delay.d.ts
|   |   |   |   |   |   |   |--- erroring_unavailable_persistence.d.ts
|   |   |   |   |   |   |   |--- fake_service_worker.d.ts
|   |   |   |   |   |   |   |--- id_token_response.d.ts
|   |   |   |   |   |   |   |--- iframe_event.d.ts
|   |   |   |   |   |   |   |--- jwt.d.ts
|   |   |   |   |   |   |   |--- mock_auth.d.ts
|   |   |   |   |   |   |   |--- mock_auth_credential.d.ts
|   |   |   |   |   |   |   |--- mock_fetch.d.ts
|   |   |   |   |   |   |   |--- mock_popup_redirect_resolver.d.ts
|   |   |   |   |   |   |   |--- redirect_persistence.d.ts
|   |   |   |   |   |   |   |--- timeout_stub.d.ts
|   |   |   |   |   |   |--- integration
|   |   |   |   |   |   |   |--- flows
|   |   |   |   |   |   |   |   |--- middleware_test_generator.d.ts
|   |   |   |   |   |   |   |--- webdriver
|   |   |   |   |   |   |   |   |--- util
|   |   |   |   |   |   |   |   |   |--- auth_driver.d.ts
|   |   |   |   |   |   |   |   |   |--- functions.d.ts
|   |   |   |   |   |   |   |   |   |--- idp_page.d.ts
|   |   |   |   |   |   |   |   |   |--- js_load_condition.d.ts
|   |   |   |   |   |   |   |   |   |--- test_runner.d.ts
|   |   |   |   |   |   |   |   |   |--- test_server.d.ts
|   |   |   |   |   |   |   |   |   |--- ui_page.d.ts
|   |   |   |   |   |--- index-3398f4bb.js
|   |   |   |   |   |--- index-3398f4bb.js.map
|   |   |   |   |   |--- index.cordova.d.ts
|   |   |   |   |   |--- index.d.ts
|   |   |   |   |   |--- index.doc.d.ts
|   |   |   |   |   |--- index.js
|   |   |   |   |   |--- index.js.map
|   |   |   |   |   |--- index.node.d.ts
|   |   |   |   |   |--- index.rn.d.ts
|   |   |   |   |   |--- index.shared.d.ts
|   |   |   |   |   |--- index.web-extension.d.ts
|   |   |   |   |   |--- index.webworker.d.ts
|   |   |   |   |   |--- internal.js
|   |   |   |   |   |--- internal.js.map
|   |   |   |   |--- internal
|   |   |   |   |   |--- index.d.ts
|   |   |   |   |--- node
|   |   |   |   |   |--- internal
|   |   |   |   |   |   |--- index.d.ts
|   |   |   |   |   |--- scripts
|   |   |   |   |   |   |--- run_node_tests.d.ts
|   |   |   |   |   |--- src
|   |   |   |   |   |   |--- api
|   |   |   |   |   |   |   |--- account_management
|   |   |   |   |   |   |   |   |--- account.d.ts
|   |   |   |   |   |   |   |   |--- email_and_password.d.ts
|   |   |   |   |   |   |   |   |--- mfa.d.ts
|   |   |   |   |   |   |   |   |--- profile.d.ts
|   |   |   |   |   |   |   |--- authentication
|   |   |   |   |   |   |   |   |--- create_auth_uri.d.ts
|   |   |   |   |   |   |   |   |--- custom_token.d.ts
|   |   |   |   |   |   |   |   |--- email_and_password.d.ts
|   |   |   |   |   |   |   |   |--- email_link.d.ts
|   |   |   |   |   |   |   |   |--- idp.d.ts
|   |   |   |   |   |   |   |   |--- mfa.d.ts
|   |   |   |   |   |   |   |   |--- recaptcha.d.ts
|   |   |   |   |   |   |   |   |--- sign_up.d.ts
|   |   |   |   |   |   |   |   |--- sms.d.ts
|   |   |   |   |   |   |   |   |--- token.d.ts
|   |   |   |   |   |   |   |--- password_policy
|   |   |   |   |   |   |   |   |--- get_password_policy.d.ts
|   |   |   |   |   |   |   |--- project_config
|   |   |   |   |   |   |   |   |--- get_project_config.d.ts
|   |   |   |   |   |   |   |--- errors.d.ts
|   |   |   |   |   |   |   |--- index.d.ts
|   |   |   |   |   |   |--- core
|   |   |   |   |   |   |   |--- auth
|   |   |   |   |   |   |   |   |--- auth_event_manager.d.ts
|   |   |   |   |   |   |   |   |--- auth_impl.d.ts
|   |   |   |   |   |   |   |   |--- emulator.d.ts
|   |   |   |   |   |   |   |   |--- firebase_internal.d.ts
|   |   |   |   |   |   |   |   |--- initialize.d.ts
|   |   |   |   |   |   |   |   |--- middleware.d.ts
|   |   |   |   |   |   |   |   |--- password_policy_impl.d.ts
|   |   |   |   |   |   |   |   |--- register.d.ts
|   |   |   |   |   |   |   |--- credentials
|   |   |   |   |   |   |   |   |--- auth_credential.d.ts
|   |   |   |   |   |   |   |   |--- email.d.ts
|   |   |   |   |   |   |   |   |--- index.d.ts
|   |   |   |   |   |   |   |   |--- oauth.d.ts
|   |   |   |   |   |   |   |   |--- phone.d.ts
|   |   |   |   |   |   |   |   |--- saml.d.ts
|   |   |   |   |   |   |   |--- persistence
|   |   |   |   |   |   |   |   |--- index.d.ts
|   |   |   |   |   |   |   |   |--- in_memory.d.ts
|   |   |   |   |   |   |   |   |--- persistence_user_manager.d.ts
|   |   |   |   |   |   |   |--- providers
|   |   |   |   |   |   |   |   |--- email.d.ts
|   |   |   |   |   |   |   |   |--- facebook.d.ts
|   |   |   |   |   |   |   |   |--- federated.d.ts
|   |   |   |   |   |   |   |   |--- github.d.ts
|   |   |   |   |   |   |   |   |--- google.d.ts
|   |   |   |   |   |   |   |   |--- oauth.d.ts
|   |   |   |   |   |   |   |   |--- saml.d.ts
|   |   |   |   |   |   |   |   |--- twitter.d.ts
|   |   |   |   |   |   |   |--- strategies
|   |   |   |   |   |   |   |   |--- abstract_popup_redirect_operation.d.ts
|   |   |   |   |   |   |   |   |--- action_code_settings.d.ts
|   |   |   |   |   |   |   |   |--- anonymous.d.ts
|   |   |   |   |   |   |   |   |--- credential.d.ts
|   |   |   |   |   |   |   |   |--- custom_token.d.ts
|   |   |   |   |   |   |   |   |--- email.d.ts
|   |   |   |   |   |   |   |   |--- email_and_password.d.ts
|   |   |   |   |   |   |   |   |--- email_link.d.ts
|   |   |   |   |   |   |   |   |--- idp.d.ts
|   |   |   |   |   |   |   |   |--- redirect.d.ts
|   |   |   |   |   |   |   |--- user
|   |   |   |   |   |   |   |   |--- account_info.d.ts
|   |   |   |   |   |   |   |   |--- additional_user_info.d.ts
|   |   |   |   |   |   |   |   |--- id_token_result.d.ts
|   |   |   |   |   |   |   |   |--- invalidation.d.ts
|   |   |   |   |   |   |   |   |--- link_unlink.d.ts
|   |   |   |   |   |   |   |   |--- proactive_refresh.d.ts
|   |   |   |   |   |   |   |   |--- reauthenticate.d.ts
|   |   |   |   |   |   |   |   |--- reload.d.ts
|   |   |   |   |   |   |   |   |--- token_manager.d.ts
|   |   |   |   |   |   |   |   |--- user_credential_impl.d.ts
|   |   |   |   |   |   |   |   |--- user_impl.d.ts
|   |   |   |   |   |   |   |   |--- user_metadata.d.ts
|   |   |   |   |   |   |   |--- util
|   |   |   |   |   |   |   |   |--- assert.d.ts
|   |   |   |   |   |   |   |   |--- browser.d.ts
|   |   |   |   |   |   |   |   |--- delay.d.ts
|   |   |   |   |   |   |   |   |--- emulator.d.ts
|   |   |   |   |   |   |   |   |--- event_id.d.ts
|   |   |   |   |   |   |   |   |--- fetch_provider.d.ts
|   |   |   |   |   |   |   |   |--- handler.d.ts
|   |   |   |   |   |   |   |   |--- instantiator.d.ts
|   |   |   |   |   |   |   |   |--- location.d.ts
|   |   |   |   |   |   |   |   |--- log.d.ts
|   |   |   |   |   |   |   |   |--- navigator.d.ts
|   |   |   |   |   |   |   |   |--- providers.d.ts
|   |   |   |   |   |   |   |   |--- resolver.d.ts
|   |   |   |   |   |   |   |   |--- time.d.ts
|   |   |   |   |   |   |   |   |--- validate_origin.d.ts
|   |   |   |   |   |   |   |   |--- version.d.ts
|   |   |   |   |   |   |   |--- action_code_url.d.ts
|   |   |   |   |   |   |   |--- errors.d.ts
|   |   |   |   |   |   |   |--- index.d.ts
|   |   |   |   |   |   |--- mfa
|   |   |   |   |   |   |   |--- assertions
|   |   |   |   |   |   |   |   |--- totp.d.ts
|   |   |   |   |   |   |   |--- index.d.ts
|   |   |   |   |   |   |   |--- mfa_assertion.d.ts
|   |   |   |   |   |   |   |--- mfa_error.d.ts
|   |   |   |   |   |   |   |--- mfa_info.d.ts
|   |   |   |   |   |   |   |--- mfa_resolver.d.ts
|   |   |   |   |   |   |   |--- mfa_session.d.ts
|   |   |   |   |   |   |   |--- mfa_user.d.ts
|   |   |   |   |   |   |--- model
|   |   |   |   |   |   |   |--- application_verifier.d.ts
|   |   |   |   |   |   |   |--- auth.d.ts
|   |   |   |   |   |   |   |--- enums.d.ts
|   |   |   |   |   |   |   |--- enum_maps.d.ts
|   |   |   |   |   |   |   |--- id_token.d.ts
|   |   |   |   |   |   |   |--- password_policy.d.ts
|   |   |   |   |   |   |   |--- popup_redirect.d.ts
|   |   |   |   |   |   |   |--- public_types.d.ts
|   |   |   |   |   |   |   |--- user.d.ts
|   |   |   |   |   |   |--- platform_browser
|   |   |   |   |   |   |   |--- iframe
|   |   |   |   |   |   |   |   |--- gapi.d.ts
|   |   |   |   |   |   |   |   |--- gapi.iframes.d.ts
|   |   |   |   |   |   |   |   |--- iframe.d.ts
|   |   |   |   |   |   |   |--- messagechannel
|   |   |   |   |   |   |   |   |--- index.d.ts
|   |   |   |   |   |   |   |   |--- promise.d.ts
|   |   |   |   |   |   |   |   |--- receiver.d.ts
|   |   |   |   |   |   |   |   |--- sender.d.ts
|   |   |   |   |   |   |   |--- mfa
|   |   |   |   |   |   |   |   |--- assertions
|   |   |   |   |   |   |   |   |   |--- phone.d.ts
|   |   |   |   |   |   |   |--- persistence
|   |   |   |   |   |   |   |   |--- browser.d.ts
|   |   |   |   |   |   |   |   |--- cookie_storage.d.ts
|   |   |   |   |   |   |   |   |--- indexed_db.d.ts
|   |   |   |   |   |   |   |   |--- local_storage.d.ts
|   |   |   |   |   |   |   |   |--- session_storage.d.ts
|   |   |   |   |   |   |   |--- providers
|   |   |   |   |   |   |   |   |--- phone.d.ts
|   |   |   |   |   |   |   |--- recaptcha
|   |   |   |   |   |   |   |   |--- recaptcha.d.ts
|   |   |   |   |   |   |   |   |--- recaptcha_enterprise_verifier.d.ts
|   |   |   |   |   |   |   |   |--- recaptcha_loader.d.ts
|   |   |   |   |   |   |   |   |--- recaptcha_mock.d.ts
|   |   |   |   |   |   |   |   |--- recaptcha_verifier.d.ts
|   |   |   |   |   |   |   |--- strategies
|   |   |   |   |   |   |   |   |--- phone.d.ts
|   |   |   |   |   |   |   |   |--- popup.d.ts
|   |   |   |   |   |   |   |   |--- redirect.d.ts
|   |   |   |   |   |   |   |--- util
|   |   |   |   |   |   |   |   |--- popup.d.ts
|   |   |   |   |   |   |   |   |--- worker.d.ts
|   |   |   |   |   |   |   |--- auth_window.d.ts
|   |   |   |   |   |   |   |--- index.d.ts
|   |   |   |   |   |   |   |--- load_js.d.ts
|   |   |   |   |   |   |   |--- popup_redirect.d.ts
|   |   |   |   |   |   |--- platform_cordova
|   |   |   |   |   |   |   |--- popup_redirect
|   |   |   |   |   |   |   |   |--- events.d.ts
|   |   |   |   |   |   |   |   |--- popup_redirect.d.ts
|   |   |   |   |   |   |   |   |--- utils.d.ts
|   |   |   |   |   |   |   |--- strategies
|   |   |   |   |   |   |   |   |--- redirect.d.ts
|   |   |   |   |   |   |   |--- plugins.d.ts
|   |   |   |   |   |   |--- platform_node
|   |   |   |   |   |   |   |--- index.d.ts
|   |   |   |   |   |   |--- platform_react_native
|   |   |   |   |   |   |   |--- persistence
|   |   |   |   |   |   |   |   |--- react_native.d.ts
|   |   |   |   |   |   |--- index.d.ts
|   |   |   |   |   |--- test
|   |   |   |   |   |   |--- helpers
|   |   |   |   |   |   |   |--- api
|   |   |   |   |   |   |   |   |--- helper.d.ts
|   |   |   |   |   |   |   |--- integration
|   |   |   |   |   |   |   |   |--- emulator_rest_helpers.d.ts
|   |   |   |   |   |   |   |   |--- helpers.d.ts
|   |   |   |   |   |   |   |   |--- settings.d.ts
|   |   |   |   |   |   |   |--- delay.d.ts
|   |   |   |   |   |   |   |--- erroring_unavailable_persistence.d.ts
|   |   |   |   |   |   |   |--- fake_service_worker.d.ts
